784,2,150,10

-0.869853,0.00981715,-0.577427,0.36266,-0.481213,-0.250513,0.28254,-0.763588,-0.56457,0.621341,0.991771,-0.569691,-0.546533,0.194804,-0.779831,-0.305266,0.0853588,-0.991455,-0.709436,-0.90775,-0.866142,-0.949969,-0.869109,-0.906252,-0.484308,-0.599011,-0.727037,0.815226,-0.343233,-0.106325,-0.541269,0.458589,0.0670903,-0.504345,0.0816935,-0.650224,-0.469727,0.0695354,0.44028,-0.296738,0.143973,0.550986,-0.729049,0.618595,-0.843538,-0.195311,-0.656496,-0.47436,0.568142,-0.868367,-0.310493,0.820298,0.257675,0.765561,0.152797,-0.906774,-0.449663,0.0516843,0.391923,0.128334,0.648499,0.564602,-0.348203,-0.119111,0.958193,0.0738453,0.208014,0.224961,-0.589575,-0.464455,-0.23913,0.393836,0.488075,-0.739146,0.909944,-0.749687,-0.749171,-0.507226,0.147477,0.42322,0.637318,-0.330119,0.533253,-0.502963,0.96139,0.479133,0.880737,-0.627594,-0.728316,0.395363,-0.51505,-0.614703,0.47254,-0.143702,0.623391,0.118418,0.354205,-0.282952,0.612445,0.211932,-0.422998,0.0104574,-0.42014,0.0947584,0.946139,-0.4087,-0.685927,-0.90369,-0.177698,-0.48209,0.388296,-0.762274,0.501602,0.000342602,0.408834,0.611917,0.975076,-0.0244964,-0.409451,0.296658,-0.881579,-0.272411,0.132978,-0.736354,0.159859,0.884047,-0.799635,0.249016,-0.435121,-0.521447,-0.702423,-0.146816,-0.385197,-0.178648,-0.190667,-0.707229,-0.819123,-0.0863831,-0.693737,-0.983374,0.786421,0.437601,-0.682673,0.25487,-0.95769,-0.494632,-0.286661,-0.104032,-0.0604062,-0.360522
0.753741,-0.940131,-0.640469,0.426503,0.314552,0.589145,-0.863811,0.677759,-0.00156843,-0.444904

0.581563,0.167848,0.35422,0.798098,-0.306283,-0.296238,-0.273528,0.699042,0.500693,0.484205,-0.619326,0.908,-0.439912,0.549036,0.424112,0.184081,-0.584121,-0.171299,0.845412,-0.232408,0.463093,-0.937087,-0.967565,0.311937,0.442002,-0.381902,0.709115,-0.750584,-0.1121,-0.535652,0.875495,0.751352,0.111267,0.978222,-0.794573,-0.72888,0.962541,-0.400557,-0.867204,0.986925,0.957397,-0.31167,-0.678624,-0.960467,0.948786,0.755859,-0.656517,0.488349,-0.814256,-0.526865,-0.981714,0.286504,-0.614966,0.36918,0.537421,-0.261031,0.871667,0.853466,-0.722483,0.675813,-0.714187,0.370688,0.252875,0.00272739,0.681709,0.982,-0.330968,-0.463075,-0.247274,0.398059,0.60045,-0.735169,0.359665,0.732396,0.916979,0.569657,-0.907252,0.0878729,0.0816517,-0.654186,0.222595,0.0640203,-0.229515,-0.857279,-0.674716,-0.822138,-0.487536,-0.769661,-0.251162,-0.00153905,0.566749,-0.691534,-0.373708,-0.675105,0.629744,-0.267081,0.584545,0.0752601,-0.129251,0.934711,-0.285416,-0.83798,-0.124858,-0.764083,-0.57997,-0.694171,-0.549914,-0.697525,0.123317,-0.389439,0.614363,0.708319,0.898526,-0.759614,-0.908977,0.364773,-0.459357,-0.77485,-0.425879,-0.50417,0.643045,0.233846,-0.164896,0.194489,-0.601863,0.473042,0.323784,0.0898364,0.555597,0.196738,0.824472,0.049287,0.236595,-0.847313,0.580958,-0.786468,-0.507112,0.991753,-0.307794,-0.164485,-0.0457451,-0.116625,0.352058,-0.399875,0.605156,-0.236486,0.703188,-0.0108971,0.699207,0.628622,-0.438932,-0.519603,-0.878471,0.180874,-0.2071,0.402886,-0.255684,0.0639205,0.249247,-0.996651,0.579215,0.808159,-0.274463,-0.735964,0.218565,0.0756337,-0.505824,-0.111702,-0.647753,0.653874,-0.421356,-0.907552,-0.582981,0.180929,-0.909164,0.102092,0.043448,-0.00484625,0.497907,-0.68321,-0.397225,0.549787,0.101456,0.915404,-0.577097,0.243453,-0.227424,0.929986,0.995496,-0.86214,0.755333,-0.918045,-0.510634,0.483974,-0.353339,0.445934,0.90807,-0.0101573,0.596608,0.795328,0.566014,-0.243421,0.760003,0.437003,-0.887035,0.00819622,-0.542063,-0.876925,-0.882237,0.314899,0.433093,0.74092,-0.492691,0.00758915,-0.918436,-0.709408,0.462794,0.403958,0.563405,-0.615247,-0.040204,-0.456421,0.899411,-0.723618,0.319633,0.397274,-0.0567941,0.912289,0.869371,0.311293,-0.476089,-0.617147,-0.524343,-0.422327,0.373303,-0.0599228,-0.501037,-0.105949,0.150613,-0.613981,0.552394,0.649922,-0.705855,-0.789921,0.739166,-0.953881,-0.849644,-0.971762,-0.976938,-0.141507,0.603477,0.409762,0.3492,-0.546538,-0.681165,-0.163972,-0.238404,-0.837851,-0.730729,-0.713984,0.670928,-0.18646,0.547232,0.144725,0.450416,-0.622607,0.00149499,0.97753,-0.448103,-0.217733,-0.80656,0.454664,0.901333,-0.205342,0.373763,0.569931,-0.451329,0.520397,-0.478694,-0.670857,-0.27425,0.676694,-0.496047,0.0409783,0.0358835,0.718217,-0.530792,0.718625,0.383867,-0.693976,0.581083,0.00621177,0.845445,-0.899881,0.5268,0.501501,0.802883,0.94471,-0.217155,0.802942,0.471241,-0.310931,-0.673813,0.950772,0.957429,-0.501616,-0.754594,-0.133588,-0.789468,-0.527752,-0.126797,0.511022,0.266961,-0.457607,-0.62398,0.902902,-0.118508,-0.156762,0.743265,0.826694,-0.660132,-0.0869799,0.665947,-0.86111,-0.815729,0.537612,-0.430169,0.847372,-0.0570035,0.666822,0.594649,-0.369072,-0.0114417,-0.0966034,0.225436,-0.239462,0.132416,-0.191899,-0.260545,-0.595874,0.704655,0.14056,0.230978,-0.529078,-0.956649,0.206692,0.904925,0.506747,-0.245042,-0.62547,0.834926,0.118257,-0.0069784,0.597706,0.000584447,-0.688493,0.614911,-0.597888,-0.771358,0.32674,0.85978,-0.368597,0.904853,0.236733,0.120186,0.273269,-0.0446817,0.798533,-0.269564,-0.0153604,-0.415798,0.0542132,0.730609,-0.484186,0.589565,0.291588,0.954845,0.0303434,-0.961817,-0.257876,-0.435787,0.43971,0.722204,0.88839,0.0823296,-0.119462,0.673077,0.981565,0.00307631,0.33534,-0.226815,0.689906,-0.750443,-0.489236,0.521265,0.473979,-0.0951255,-0.839526,-0.894153,-0.0881107,-0.838361,0.152377,0.455705,-0.22961,-0.578983,-0.951357,-0.336056,0.518038,0.507696,0.162608,-0.342712,-0.941089,-0.100319,0.79238,0.0844152,-0.523286,0.935166,-0.116995,-0.248707,-0.743009,-0.784683,-0.0875213,-0.595233,0.755808,0.954284,0.187973,-0.0212576,-0.563357,-0.529668,0.314143,0.272117,-0.380625,-0.167809,0.941772,-0.183994,-0.582263,-0.229527,0.356789,0.539242,-0.759738,-0.0366924,-0.00155439,-0.556992,0.614665,-0.0841788,-0.218639,0.184683,-0.286138,0.482795,0.734375,0.366808,-0.231128,0.956301,0.261022,0.559193,-0.641218,-0.349248,-0.829132,-0.722123,0.377179,-0.814109,0.0490859,-0.0924666,-0.592803,0.646039,-0.628764,0.873661,0.964016,0.0291967,-0.655187,0.638001,-0.906677,0.807191,-0.0948164,-0.499959,0.248723,0.000123382,0.108725,0.000737035,-0.119878,0.18017,-0.315305,-0.877022,-0.141722,-0.0575253,-0.438818,-0.71266,-0.335496,0.0854988,0.962462,-0.548869,-0.190555,-0.167295,0.510054,-0.212311,-0.958154,0.758402,0.0489087,-0.372641,-0.825705,-0.362398,-0.549087,0.0577249,0.606504,-0.509564,-0.946353,-0.720464,0.20158,0.0904098,-0.671421,-0.118423,0.367883,-0.456429,-0.0152387,0.520629,0.386903,-0.053324,-0.749585,0.666386,0.567577,0.252356,0.224295,-0.863101,0.681682,-0.636368,0.1325,-0.913321,-0.56245,0.543923,-0.790864,0.396005,0.87786,-0.681963,0.854889,-0.173154,-0.480146,-0.433161,0.0423446,0.280353,0.722236,0.300532,-0.710564,0.521854,-0.724435,0.66102,0.69381,0.97768,0.231317,-0.740149,0.979786,-0.45268,0.014173,-0.541266,0.145627,0.78648,0.242892,-0.514187,0.737283,0.502674,-0.252677,-0.721821,0.391196,0.312629,-0.534393,0.515692,0.354422,0.297242,-0.205679,-0.083606,-0.807724,-0.492776,0.653991,-0.455855,-0.0358346,-0.657115,-0.118174,-0.45925,-0.368517,0.153757,0.453398,-0.372438,0.5166,-0.328994,0.514739,0.168054,-0.946031,-0.474021,-0.302204,0.433778,0.203293,0.751641,0.263333,-0.988824,-0.38802,-0.94446,-0.641345,-0.570318,-0.156596,-0.965647,0.218029,0.550225,0.980475,0.717059,-0.194082,-0.665207,0.789077,-0.635376,0.735417,-0.198739,0.17584,-0.685741,-0.936489,0.9381,-0.930163,0.759698,0.0441682,-0.127382,0.164004,-0.305151,0.329012,-0.686584,-0.722294,0.5865,-0.051028,-0.790976,-0.43637,-0.471675,-0.533675,0.00332591,-0.707996,-0.395225,0.601121,-0.787634,-0.728372,-0.609623,0.34959,0.0551043,-0.558372,-0.851537,-0.843104,-0.714619,0.824896,0.607336,-0.477546,0.076424,0.605313,-0.291064,0.138146,0.57386,-0.92605,0.825482,-0.454034,0.640998,-0.874008,-0.376698,0.710046,0.469866,-0.935775,0.853529,-0.727442,-0.991433,-0.160328,0.874837,-0.155227,-0.54077,0.278505,-0.130387,0.631631,0.0144775,0.251995,-0.376438,0.513866,0.29388,-0.7362,0.53621,0.233632,-0.987671,-0.365549,0.82861,0.625813,0.0813013,-0.209265,0.026152,0.972327,0.226705,0.00901119,-0.610906,0.707354,0.123919,-0.441371,-0.31753,-0.659019,0.651476,-0.311598,-0.501827,-0.93061,-0.176944,-0.469968,-0.484635,0.253146,-0.716186,-0.124924,0.253591,-0.156492,0.172243,-0.161605,0.990222,0.46956,0.0793703,-0.572101,-0.975564,-0.423811,0.409047,-0.685988,0.835631,0.241963,-0.489186,-0.556991,0.206745,0.12797,0.641924,0.0143276,-0.976842,0.979396,0.117075,0.394818,-0.512642,0.125823,0.167603,0.804482,0.960774,-0.689919,-0.72153,-0.447507,-0.586528,0.124583,0.963937,0.94035,-0.819278,0.660638,0.0832888,-0.593234,-0.629198,-0.660577,0.400908,0.00910962,-0.439095,-0.809521,0.898934,-0.123059,-0.205162,-0.529778,-0.99036,-0.905937,0.291827,0.875269,0.12985,0.504377,-0.595372,-0.780431,-0.702232,0.283632,0.410218,-0.648498,-0.163877,-0.365818,0.408823,0.804762,-0.953915,-0.106451,-0.565996,0.765645,0.488653,-0.301645,-0.751278,-0.506855,-0.713297,-0.190099,-0.257901,-0.400732,0.621267,-0.70524,0.980845,-0.974072
-0.836808,-0.776854,0.91316,-0.0457765,0.920506,0.485991,-0.0702901,0.686054,0.30157,-0.968922,0.72755,-0.945537,-0.352655,-0.447629,0.718799,-0.170035,0.98837,-0.719403,-0.866629,0.440219,-0.588409,-0.358453,-0.683996,0.905454,-0.63482,-0.0789126,-0.497423,0.555736,-0.90309,0.79787,0.0602165,-0.044453,-0.709027,0.580145,-0.379486,0.350063,-0.143369,0.548365,0.0426846,-0.657996,0.769816,-0.632533,-0.507269,0.411787,0.390444,0.300841,0.0941057,-0.643971,0.808769,0.229248,0.702101,-0.545882,0.115166,0.213447,0.849404,-0.0540499,0.750634,0.319486,0.768742,0.315362,-0.367945,0.928399,-0.621977,-0.83786,0.572837,0.0614027,0.38043,0.0323613,0.0215614,-0.286538,-0.0600165,-0.827184,0.492872,-0.180923,0.635312,-0.514275,0.781221,-0.443794,0.734457,-0.54134,-0.148704,-0.127074,0.666383,-0.194238,0.949286,0.353333,-0.483724,-0.690629,0.929023,-0.42851,-0.734323,0.042628,0.892903,-0.473474,-0.273039,0.359861,0.923476,-0.759407,-0.478297,0.301905,-0.361616,-0.000837147,0.125873,-0.198616,0.993051,-0.761719,-0.596768,0.803692,-0.642933,0.348952,0.0760949,0.0628684,0.553424,0.935414,0.546008,0.853499,-0.861808,-0.495204,0.514645,-0.439763,0.450448,0.989109,-0.438678,-0.415347,0.0941125,-0.304691,0.376682,0.232983,0.0586227,0.871108,-0.0653031,-0.212677,0.628585,0.0732604,0.109295,-0.95356,-0.944003,0.246293,-0.313579,-0.716047,0.121981,-0.543947,0.837809,0.497058,-0.68528,-0.526897,-0.715229,-0.355402,0.546552,0.629987,-0.623614,0.198093,0.529229,-0.912201,0.119999,0.542956,0.150112,-0.0747664,-0.116144,-0.565482,0.590778,0.036271,-0.504677,-0.269534,0.666915,-0.689574,-0.241783,0.731548,-0.885343,-0.545045,0.96493,0.255014,0.488866,-0.190565,0.303338,-0.35682,-0.937653,0.874485,-0.3413,0.284077,-0.627119,-0.078123,0.0305102,0.31839,0.964175,-0.566202,0.998444,-0.855769,-0.753429,-0.766301,-0.516024,0.914925,0.761313,0.262394,-0.758603,0.374272,-0.686988,0.935344,0.420521,0.372054,-0.340745,-0.980998,0.369898,0.265327,-0.0263177,-0.470906,0.818485,0.855655,0.0359017,0.826234,-0.754277,-0.889909,0.588988,0.689591,0.780437,0.199569,0.278117,-0.960694,0.550271,0.0405933,-0.368782,0.772983,0.660549,0.497671,-0.660526,-0.340662,-0.851563,-0.542822,-0.512832,0.729497,0.016903,-0.408796,-0.0687665,0.544297,0.846156,-0.452109,-0.685423,-0.442416,0.933686,0.986293,0.173481,-0.837024,0.203794,0.509836,0.00221866,0.456154,0.725919,0.369623,0.937681,-0.626943,-0.428824,-0.236311,-0.0789479,-0.668404,0.699238,-0.945216,0.0162717,-0.640485,-0.231866,-0.340358,-0.97935,0.643259,0.597523,0.3664,-0.0389222,0.333455,0.950462,-0.0554887,0.163693,-0.650371,0.969905,-0.943237,-0.644207,0.417496,-0.663413,-0.132244,-0.352046,0.874844,0.925354,-0.59207,-0.176871,-0.204951,0.194506,0.404417,0.431956,0.46898,0.14579,-0.108336,-0.127853,0.466659,-0.95768,-0.279529,0.112204,-0.384486,0.435848,-0.604456,-0.235153,0.979231,0.397355,-0.143105,0.9787,0.304306,0.809207,-0.346078,0.662819,0.769746,-0.926107,0.593601,-0.106087,-0.438376,0.287404,0.891397,-0.787868,0.136013,0.0415774,0.150037,-0.764372,0.12952,-0.622809,0.924708,0.782989,0.698383,0.0561571,0.403352,-0.911928,0.446678,-0.427821,0.0752659,0.667564,-0.45072,-0.302672,-0.561114,-0.876406,0.597645,-0.425302,-0.448429,-0.505237,0.512714,-0.796825,-0.849461,-0.101974,-0.256899,-0.571734,0.562602,-0.711014,0.646085,-0.718205,-0.395377,0.692274,-0.232307,0.53103,0.498793,-0.708651,0.830249,-0.0903131,0.699808,0.768903,0.301298,0.590475,-0.670482,-0.446054,-0.926572,0.85714,-0.558851,-0.607135,-0.484567,-0.43117,-0.258642,-0.629196,0.542378,-0.315298,-0.497367,-0.504049,0.708346,0.730032,0.0908816,0.607923,-0.415216,0.672352,-0.968864,0.256624,0.305856,-0.207258,-0.890808,0.597525,-0.0991013,0.155039,0.379129,-0.14407,0.308987,0.258295,-0.595842,-0.174514,0.220185,-0.203598,-0.198912,-0.4602,0.629078,-0.121777,0.945302,-0.520387,0.547356,-0.587524,0.35113,0.902666,0.145363,0.304862,-0.625703,0.858305,0.0966947,-0.422557,0.149608,0.175794,-0.840835,0.374246,-0.83839,-0.630912,-0.888738,0.477773,-0.63293,0.800002,0.737473,-0.998933,-0.869065,0.807716,0.720995,0.307215,0.887535,-0.0364221,-0.999802,-0.73943,-0.877903,0.909038,0.808543,-0.0228526,0.393433,0.00401931,-0.83322,-0.25935,0.709117,0.762523,0.37348,-0.417744,0.675061,-0.580525,0.151208,0.0824038,0.208511,-0.536161,0.285009,-0.97008,-0.835351,0.180219,0.755328,-0.825309,-0.31812,0.150958,-0.433062,0.279256,-0.0219592,-0.365276,0.485915,-0.419756,-0.484515,-0.375835,0.253155,-0.225105,-0.202872,0.933349,-0.678708,0.441906,0.933171,-0.407907,0.266551,0.670498,-0.0728148,-0.350498,-0.381629,-0.481849,-0.094775,-0.151158,0.485318,-0.568277,0.585996,-0.0289819,0.263867,0.394509,-0.304439,-0.171959,0.786748,-0.263579,0.494618,-0.272341,-0.75522,0.477627,-0.038194,0.963988,-0.642996,-0.80114,0.745148,-0.799953,-0.238123,-0.0233382,-0.500973,-0.0111161,-0.013543,0.80025,0.452277,-0.277929,0.605343,0.467645,0.594144,-0.0247298,-0.942243,-0.900283,-0.282094,-0.46232,-0.291822,0.903719,-0.738746,-0.300311,0.336529,0.637719,0.987836,-0.348768,0.556264,0.81423,0.719572,0.577192,0.266852,0.0436194,0.293297,-0.609618,-0.739297,-0.269897,-0.842224,-0.768023,0.48381,0.904668,-0.831428,0.761994,0.886668,-0.659736,0.311381,-0.363359,-0.802643,0.906588,0.403871,0.936603,0.612579,-0.693051,0.113672,0.987028,0.300852,-0.927111,0.212562,-0.0534017,-0.519603,-0.572957,-0.721735,0.797226,0.528894,-0.887107,-0.750889,0.0996997,0.798573,-0.574728,0.382181,0.185098,0.357161,0.633141,0.112147,-0.727907,0.821845,0.724821,-0.697058,0.088223,-0.910417,0.592231,0.704791,-0.309057,0.968136,-0.63371,0.249013,-0.39621,0.589493,-0.943884,-0.506482,-0.130624,0.207209,0.063832,0.516946,-0.0124589,-0.334405,-0.869015,0.0150775,-0.0535251,-0.0800258,0.130844,0.123617,0.402448,0.542186,-0.710182,0.761339,0.692287,0.389285,0.45658,-0.475589,0.506127,-0.601163,0.208144,0.0875571,-0.933191,-0.0771939,-0.550132,-0.944202,0.559428,0.0732201,0.545363,-0.309632,-0.780222,0.505047,0.373923,0.905662,0.23073,0.15352,-0.0994878,-0.727051,-0.730275,-0.760319,0.338695,0.659566,-0.115468,0.875076,-0.246829,-0.404326,0.528557,-0.0543689,-0.587224,-0.787958,-0.267463,0.687216,0.35036,-0.489109,0.769333,0.857068,-0.0460545,0.444894,0.835177,0.871073,-0.57877,0.920925,0.897911,0.507068,-0.373731,-0.833201,-0.540259,-0.537061,0.183764,-0.20113,-0.417078,-0.111852,-0.986669,-0.38791,0.982184,-0.454839,0.486776,-0.510453,0.276866,0.880267,0.869842,-0.252144,-0.678518,-0.169414,0.0767398,-0.179834,0.501795,0.623809,0.695089,-0.953209,-0.64945,-0.0274069,-0.856141,-0.264848,0.791099,-0.285856,0.00299196,-0.882562,0.193347,-0.334761,-0.652079,-0.355355,-0.951778,0.185929,0.491627,0.563278,0.846453,0.245085,-0.969598,-0.312267,0.510082,-0.0909375,0.387583,0.0978026,-0.932185,0.615315,-0.610196,-0.435786,0.270562,0.714737,0.832952,0.945659,-0.14656,0.575909,0.390076,-0.637891,-0.773657,-0.0625347,0.944131,-0.215041,-0.265451,-0.731914,0.827307,-0.856479,-0.639967,-0.13565,0.339462,0.852943,0.707742,-0.424816,-0.970431,-0.219501,0.774116,0.145784,0.416272,0.85142,-0.107502,-0.19577,-0.383249,0.986096,-0.662132,0.106109,0.801546,-0.899328,-0.593145,0.254716,0.00868583,0.118594,-0.996745,-0.579754,-0.346962,0.247771,-0.039982,-0.214018,0.924107,-0.131593,-0.82674,-0.568293,0.709235,0.876856,-0.915695,0.742674,-0.112254,0.373271,-0.577607,-0.319708,0.691011,-0.270625,-0.0233467,-0.358198,-0.0614647,0.556793,0.568737,-0.0153518,0.23949,-0.193712,0.627483,0.621317,-0.309129,0.322174,-0.426241,0.264908,-0.0805288,0.690909
-0.939214,0.249925,0.381228,0.00992048,0.751502,0.689746,-0.903271,0.594608,-0.312586,-0.814152,0.0152286,-0.656621,0.389122,0.501775,0.611686,-0.549117,0.801711,0.227058,0.649424,0.23411,-0.0309783,0.425397,-0.835573,0.579554,-0.190041,0.855988,-0.628996,0.813875,-0.348174,0.0574085,-0.906115,-0.43158,-0.673148,0.893099,0.0779438,-0.0315434,0.296335,0.996875,-0.515563,0.109901,0.67499,0.752438,0.456922,-0.569608,-0.629485,0.913041,-0.76199,0.528378,0.88664,0.370603,-0.778553,0.520861,-0.250532,0.812694,0.321228,-0.454584,0.165463,-0.824735,-0.807608,-0.894716,0.0661989,-0.618949,0.515316,0.439322,-0.124027,0.376372,0.556997,-0.026011,-0.337086,0.219992,0.228795,-0.560701,0.977055,0.717353,0.732755,0.667316,-0.472893,-0.181613,0.210084,0.490045,-0.607693,-0.60292,-0.367058,0.793083,-0.463463,-0.0293134,0.549986,-0.174759,-0.496598,-0.147361,0.58338,0.0798924,0.798746,-0.93072,-0.658078,-0.00307649,0.400093,-0.277117,-0.137985,0.680899,0.793421,-0.0320076,-0.148982,0.657873,-0.260626,0.323824,-0.847623,-0.548792,0.578622,-0.173382,-0.0385579,0.999163,-0.230654,0.969079,-0.811835,-0.451175,0.377174,0.753912,-0.646525,0.153569,-0.962657,0.298108,-0.518262,0.922597,0.0614825,-0.616153,-0.373664,0.975419,-0.451907,0.245351,-0.912293,-0.344737,-0.552715,0.794609,-0.679602,-0.16293,-0.521944,-0.149331,0.247506,0.112514,-0.806733,0.629468,0.490421,-0.950943,0.803692,-0.514248,0.21807,-0.34514,0.797809,-0.423553,0.780995,0.429214,-0.872579,-0.575478,-0.183596,0.192636,-0.513907,-0.167998,0.446884,-0.815493,0.868755,-0.900398,-0.971241,-0.231842,0.772968,0.32389,-0.541611,0.397446,-0.681349,0.948359,0.491427,-0.15207,0.137145,-0.35973,0.0382051,-0.506484,-0.404148,0.132196,-0.955812,-0.29117,0.00416238,-0.159005,-0.683869,0.268668,0.733857,-0.300087,0.079066,-0.613506,-0.0592314,-0.228214,0.578544,0.932257,0.0852969,-0.264397,-0.660346,0.772063,-0.201779,-0.744396,-0.9082,-0.218058,0.605218,-0.593249,0.364179,-0.444366,0.0664215,0.825347,0.222894,-0.362008,-0.0598085,0.773769,-0.713517,-0.805576,-0.993674,-0.114795,-0.630268,0.715131,-0.98438,-0.52214,-0.625943,-0.959375,-0.862993,-0.0252281,-0.638271,-0.254918,-0.313244,-0.886993,-0.568596,-0.758403,0.379572,-0.181031,-0.126795,0.677617,0.834572,0.310939,-0.615494,-0.743935,-0.4733,0.68465,0.214537,-1.00267,0.552075,0.564264,-0.925152,0.348219,0.403545,0.271717,-0.226465,-0.185393,0.691284,-0.9642,0.742602,0.817787,-0.731218,-0.128746,-0.362755,-0.492495,-0.132201,0.119771,-0.719835,-0.398757,0.95407,-0.69439,-0.999027,-0.160822,0.429079,-0.25231,-0.89728,-0.758168,0.295176,0.378449,-0.263016,0.420117,0.941407,-0.275248,0.77994,-0.377275,0.263933,-0.903588,0.372159,0.223836,-0.0957624,-0.540396,-0.0378647,0.84578,0.395329,0.650378,0.0759186,0.338072,0.47115,-0.833731,0.970725,0.209478,0.94516,0.0738125,-0.54394,-1.00202,-0.371387,0.0465645,0.798686,-0.496891,-0.427357,-0.0457525,-0.299065,-0.348846,0.0869809,0.573748,-0.194575,0.332463,-0.838544,-0.434829,0.298732,0.45205,0.929538,-0.350927,-0.52703,-0.0392175,-0.295957,0.816121,-0.496312,0.673557,0.861367,0.294316,0.989282,-0.293184,-0.778295,-0.904648,-0.647801,0.723248,0.447109,-0.856916,0.357753,0.64674,-0.354035,-0.0398645,0.999412,-0.939136,-0.0979251,-0.257702,-0.912365,0.619334,0.228046,0.0886808,0.927091,0.692986,0.83792,0.956151,-0.478896,0.178536,0.949328,-0.0982974,-0.195169,-0.291273,0.0464109,0.0969545,0.861303,0.89704,0.177743,0.191446,0.8442,0.142348,-0.225891,0.998433,-0.6691,0.494317,0.240359,0.648282,-0.682164,-0.7813,0.715627,-0.975076,0.242912,0.817985,-0.257325,0.398528,-0.635635,0.629332,0.916227,-0.563492,0.567806,-0.461536,0.606155,0.0109387,-0.0458203,0.129161,0.199321,-0.819817,-0.223351,-0.806027,0.861604,-0.780271,0.916889,0.339436,0.998223,0.904076,-0.860901,0.336985,-0.731001,-0.525787,0.833753,-0.980154,-0.355381,-0.492278,0.970165,-0.102048,0.64849,0.133483,0.520706,0.544108,0.0546634,0.460625,0.00647651,-0.556225,0.687035,0.777125,-0.53799,-0.473955,0.976793,0.164234,0.805104,0.987221,0.971312,0.951772,0.0937947,0.561713,-0.859496,-0.077472,-0.285959,0.703052,0.264087,0.648801,0.332482,-0.422524,0.769755,-0.231052,0.584013,0.829081,-0.70121,0.697528,0.30004,-0.9283,-0.0605542,0.281402,0.856768,0.567667,0.481598,0.975597,0.147118,-0.368361,0.845471,0.00689018,0.772616,0.507104,-0.213063,0.214945,-0.68043,-0.275569,-0.565779,0.918885,-0.557702,-0.559621,-0.470217,0.385466,0.374731,-0.160143,-0.699334,0.607691,0.100536,-0.919881,0.814028,0.932333,0.711206,-0.349023,0.269429,0.504964,-0.228684,0.115607,0.225471,-0.112326,-0.26387,-0.885743,0.660082,0.814201,-0.484024,-0.0517078,0.483958,0.345527,0.108849,-0.112103,-0.645576,-0.59996,-0.778008,0.780398,-0.712017,-0.317645,0.32548,0.792957,-0.817482,-0.283783,-0.386635,-0.110451,-0.622082,-0.717144,-0.216383,-0.0546241,-0.764494,-0.979419,0.483046,0.0205951,0.267125,0.0876629,0.89673,0.79811,0.689122,0.952232,-0.461082,-0.391209,0.555589,0.985758,0.621367,-0.691517,0.521062,0.285072,-0.0141702,-0.319777,0.253182,0.670052,0.732062,-0.509086,-0.887681,-0.65067,0.0276895,-0.130672,0.358566,0.757978,0.792347,0.945584,0.398111,-0.507021,0.704109,0.593034,-0.968051,-0.328071,0.899001,0.503247,0.635326,0.810848,0.609726,0.224528,-0.479431,-0.456793,0.890762,-0.50025,-0.689346,0.336824,0.0498085,0.279277,-0.225,-0.704359,0.245731,0.6126,0.28704,0.817525,0.05186,0.000316022,-0.362487,-0.265199,-0.215493,0.572417,0.411981,0.0965664,0.978806,0.287222,0.681576,0.575962,-0.559917,-0.302649,0.286577,0.311764,0.145512,-0.997667,0.113157,-0.873078,0.113851,-0.168912,-0.207957,0.994801,-0.974513,0.347509,0.245813,-0.567454,-0.495116,0.449111,-0.381513,-0.834067,0.34939,0.146083,0.405992,-0.714769,-0.486426,0.63753,-0.946192,-0.184951,-0.146508,0.855511,-0.566372,0.517422,0.744589,0.594875,0.887542,0.807815,-0.21885,0.338016,0.447962,0.416877,-0.171826,0.0729338,-0.283318,-0.543177,-0.589996,0.184256,-0.701363,-0.0770781,0.782123,0.588343,0.362634,0.388301,0.469881,-0.232996,-0.779942,0.400411,0.879744,0.349645,-0.023113,-0.961334,-0.748155,-0.899084,-0.846625,-0.565235,0.0473647,0.433095,-0.703538,0.395053,-0.684432,0.200712,0.812677,0.300345,0.161028,-0.0661877,0.207748,-0.128306,-0.66858,0.739117,0.319003,-0.29054,0.394488,-0.343666,-0.411588,0.101775,-0.176935,-0.38934,-0.504381,0.0159254,-0.608417,-0.174625,-0.819933,-0.440221,0.327492,-0.0925812,-0.740774,0.563373,-0.503097,-0.605923,-0.162249,0.743646,-0.206353,0.970028,-0.694552,-0.0924575,-0.289002,-0.215747,-0.0834175,0.976864,-0.733175,0.942272,0.505633,-0.823992,-0.315756,-0.458343,-0.596565,0.521468,-0.179536,-0.0923772,0.0462239,0.923918,0.885564,-0.499224,-0.332626,0.578597,-0.604852,-0.928727,0.541415,0.835981,-0.467225,0.853992,-0.608691,0.0865734,-0.590838,-0.546232,0.511277,0.111217,0.079011,0.907431,0.439877,0.940274,0.802588,-0.855304,-0.164168,0.0317161,0.53623,0.207218,0.375899,-0.479278,-0.086554,-0.322384,0.69596,-0.61147,-0.857412,-0.329853,-0.0181893,-0.81326,0.782646,0.0716308,-0.142781,0.916244,-0.0259343,0.403329,-0.515988,-0.719495,0.244106,0.221927,-0.117,0.912946,-0.300282,0.314948,0.296464,-0.271806,-0.390375,-0.477869,0.664983,0.69787,-0.706499,0.446964,0.68995,0.187274,0.0754982,-0.238682,0.382645,0.623021,-0.522932,-0.196537,-0.81908,0.194701,0.138723,-0.286407,-0.857127,-0.144674,0.182242,-0.145465,-0.38765,0.725381,-0.813535,0.775257,-0.695105,-0.593118,0.144971,-0.744779,0.622609,-0.850752,-0.815258,0.0857989,-0.542701,0.531928,-0.0302058,-0.460017
-0.396616,0.138954,0.761763,0.12133,0.421523,0.711548,-0.387305,0.396643,0.032632,-0.752868,0.248289,0.0489047,-0.588331,-0.558431,0.536401,0.959034,0.0524385,-0.691374,-0.979642,0.458051,0.937009,0.524502,-0.794855,-0.856605,-0.588702,-0.326587,0.0961224,-0.300347,-0.903971,-0.961592,-0.322601,-0.991996,0.368175,-0.671377,-0.85022,0.8268,0.120096,0.212001,0.433646,0.603353,0.602587,-0.973278,0.993098,-0.869668,-0.659996,0.823388,0.0712355,-0.112065,-0.333789,-0.983138,0.925304,0.386363,0.994243,-0.866932,-0.764493,-0.358635,-0.916986,0.194282,0.529458,-0.0335994,0.688464,-0.766717,0.132067,0.536404,-0.058568,0.217755,0.563532,-0.31593,0.527511,-0.821364,0.421214,0.553021,-0.314339,-0.30309,0.563855,-0.786645,-0.301466,-0.174364,0.0668318,0.547778,-0.634869,-0.0755195,-0.127601,0.157288,0.900522,0.621502,0.674392,0.738267,-0.36518,-0.501371,0.981468,-0.745591,-0.467573,0.727222,-0.944736,-0.225051,0.700645,-0.644486,0.702317,0.709877,-0.359722,0.486284,0.209705,0.87807,0.288109,0.274785,-0.31398,-0.537399,-0.733711,0.71286,0.631374,-0.971048,-0.665946,0.93789,-0.101506,0.695648,-0.166644,-0.748474,-0.164873,-0.502158,0.889864,0.882958,0.224261,-0.578915,0.661806,-0.464533,-0.259522,-0.283576,-0.212285,-0.864327,-0.449933,-0.992516,0.307891,-0.71066,-0.440653,-0.370304,-0.588692,-0.511192,0.859741,0.395702,-0.188991,-0.297225,-0.105733,0.745736,0.826451,0.0238293,0.7194,-0.550965,0.169855,0.263223,-0.300835,-0.0829315,0.402425,0.0625723,0.0872551,-0.748788,-0.81436,-0.976152,-0.117563,0.866666,-0.00279905,-0.354912,0.976054,-0.174906,-0.122466,0.766198,0.261831,-0.45368,0.842747,-0.975833,0.670615,-0.360988,0.511081,-0.269358,0.61797,0.11889,0.78201,0.475573,0.702722,-0.329022,-0.855992,-0.944429,-0.0618453,-0.768892,-0.251525,-0.734755,0.0273651,0.979358,-0.410724,-0.818283,0.901194,0.0127272,0.93652,-0.973333,0.494592,0.828175,0.261954,-0.530343,0.780903,-0.335448,0.626036,0.857293,0.888764,-0.12919,-0.0189694,-0.492069,-0.689181,0.687523,0.622595,-0.288506,0.818181,0.736745,-0.320271,-0.302374,-0.864976,-0.985476,0.148842,0.37235,0.186225,-0.844828,-0.891647,-0.145747,-0.06093,0.535601,-0.0423535,-0.221468,0.698272,0.457347,-0.529571,-0.247755,0.762369,-0.807429,0.351362,0.431963,-0.585139,0.838835,-0.617048,-0.982919,-0.151723,0.330415,0.581661,-0.900987,-0.292356,0.61522,0.33769,0.569512,0.711867,0.716492,0.724867,0.606745,0.564275,0.0862103,-0.278449,-0.907361,0.801727,0.724319,0.533594,-0.636389,-0.106175,0.60467,-0.774111,0.916597,0.943701,0.461505,-0.398865,0.599553,-0.883855,0.88926,-0.143778,0.0178925,-0.76094,0.504118,0.318748,-0.946722,0.477228,-0.42419,0.292789,-0.253386,-0.149947,-0.434916,-0.276406,-0.206449,0.984308,-0.936858,-0.913562,-0.377901,0.0958747,0.0278907,0.321853,0.157153,0.863736,-0.795212,-0.260014,-0.925906,-0.692079,0.0707339,0.622064,-0.942656,0.36191,-0.964802,0.307988,0.244156,0.336443,-0.967251,0.0795125,0.731683,-0.272077,0.716474,0.155011,0.917701,-0.712505,0.33359,-0.192326,-0.333961,0.509205,0.346678,-0.832159,-0.0708653,0.0762038,-0.142422,-0.81891,0.97646,-0.382278,-0.301822,0.28022,-0.384015,0.611463,0.715347,-0.137767,0.688472,-0.756101,0.832067,0.522252,-0.106642,-0.172505,-0.306708,-0.79848,0.424601,0.300308,0.980203,0.289806,-0.668773,0.43177,-0.860785,0.465305,-0.703153,-0.400724,0.214391,-0.399473,-0.121662,-0.237009,-0.450177,0.322382,0.884459,-0.604215,-0.940054,0.774681,0.244013,-0.0590408,0.680951,-0.0656305,-0.935962,0.751453,-0.843876,0.124424,0.881686,-0.0392408,0.0223326,0.0248546,0.50012,-0.396651,-0.41333,-0.476101,0.633989,-0.770691,0.707989,0.617086,0.719347,0.286441,-0.856515,0.228103,-0.669194,-0.190196,0.270987,0.0427322,-0.798144,0.469118,0.111794,-0.499372,-0.968461,0.871864,-0.984404,0.975924,-0.175487,-0.175115,0.157303,0.144415,0.828241,-0.285668,-0.509088,-0.63086,0.636558,-0.349864,-0.063661,-0.160365,0.936826,-0.00295891,-0.934877,0.164533,-0.938222,-0.40481,0.462412,0.00503293,0.785284,0.30083,-0.804188,0.296229,-0.0678344,-0.966744,0.146065,0.985271,-0.87763,0.465737,0.145864,0.720823,-0.556848,0.562269,-0.937926,-0.122127,0.473699,-0.863094,0.902301,-0.039416,-0.797219,0.75719,0.235126,-0.0812205,-0.222196,0.976181,-0.0253563,0.141098,-0.147257,0.781386,0.128124,0.823,0.512358,0.919887,0.240988,0.350718,-0.553455,-0.826462,-0.701189,0.0019673,-0.119658,0.0589709,-0.259021,0.636073,-0.642332,0.644881,0.531625,0.370248,-0.352822,0.140628,0.501982,-0.794486,-0.743869,-0.15094,-0.595337,0.457138,0.51647,-0.587674,0.0711549,0.665306,-0.583113,0.0317482,-0.588047,-0.0644177,0.176178,0.206664,-0.333991,-0.170309,0.831745,-0.0815958,-0.749062,0.543263,0.11937,0.409127,0.330338,-0.870093,-0.514326,0.691435,0.228069,-0.668055,0.115048,0.367427,0.355354,-0.94399,-0.279685,-0.932642,0.291274,-0.344657,-0.812888,-0.311089,0.572205,-0.619231,-0.951896,-0.835353,-0.101381,0.581971,-0.324701,0.892229,-0.512277,0.850617,0.0475826,0.960719,-0.992215,0.0603195,0.865398,-0.955048,0.573485,0.150628,0.481521,-0.210487,0.983506,0.147148,0.0117069,0.230322,-0.0644803,-0.65561,0.327778,0.957793,-0.581266,0.135095,-0.312077,-0.186174,0.194782,0.457736,-0.301839,-0.902081,-0.684808,0.763604,0.387033,-0.291324,0.230744,0.10536,0.58259,-0.477499,0.604323,0.360748,0.502544,0.797065,0.932742,0.289443,-0.247904,0.496528,0.956884,-0.138804,-0.807638,-0.83459,-0.364239,-0.716764,0.332901,-0.703859,0.065383,-0.847716,0.114373,-0.0182829,-0.874463,0.93187,-0.668729,-0.982869,0.912999,0.301356,-0.275591,0.103521,-0.614408,-0.053855,-0.503628,0.415201,-0.608631,-0.884808,-0.733221,-0.569317,-0.877619,0.850747,0.613312,0.511284,0.345189,-0.565451,0.00883679,-0.932512,0.968355,0.894306,-0.167832,-0.638468,-0.415657,-0.770692,-0.159215,0.356452,0.631614,0.875943,-0.548734,0.753547,-0.912039,0.5907,0.0954103,0.105832,-0.947297,-0.478393,0.0588428,0.998151,0.00932327,0.761711,-0.428385,-0.156675,-0.141146,-0.125578,0.652092,-0.23895,-0.3489,-0.309508,0.434723,0.209819,-0.546193,-0.518268,-0.155628,-0.00495927,0.409442,0.458497,-0.840664,0.520108,-0.141979,0.642557,-0.889465,-0.30817,0.767079,0.541387,-0.687089,-0.605201,-0.972875,-0.439362,0.336548,-0.863721,0.923247,-0.518894,0.328858,0.451176,0.065971,-0.323616,0.550204,0.326152,-0.228757,-0.10865,0.274711,0.115014,0.974132,0.977732,0.100053,-0.171204,-0.178059,0.0864247,0.305859,0.400094,0.155345,-0.121183,0.38489,0.915116,0.0634546,-0.01045,0.000404239,0.538479,-0.577297,0.981649,0.0369449,0.159118,-0.776109,-0.0413994,0.173827,-0.00895838,0.635019,-0.546988,0.995171,-0.0630821,-0.342729,0.20839,-0.0317079,-0.969167,0.0140317,0.876004,-0.698911,0.77913,-0.0756323,-0.40363,0.251742,-0.422936,-0.155674,0.0237643,-0.616812,-0.364773,-0.567847,0.662507,0.776022,-0.976289,0.855636,-0.793537,0.225957,-0.316669,0.287663,-0.955848,-0.0607861,0.0908412,0.368558,0.280576,-0.380831,0.147404,-0.274702,-0.668924,-0.697609,0.759396,-0.846568,-0.754745,-0.504651,0.0247976,-0.852239,0.737474,-0.0139768,-0.892362,0.702201,0.217961,0.0830342,0.548811,0.169488,-0.516504,0.949713,0.121098,0.839012,-0.294168,-0.917465,0.826016,-0.338997,0.401469,-0.578046,0.0932311,-0.391897,-0.928072,0.187569,-0.190036,-0.479258,0.0590423,0.260194,0.239185,0.535897,-0.279649,0.0333163,0.298602,-0.139596,0.691904,0.207245,-0.145742,-0.477961,0.907815,0.265095,0.886231,-0.601617,0.422469,0.863437,-0.448936,0.387062,0.456314,-0.982541,0.109356,0.856003,0.503802,-0.853919,-0.917037,0.659736,0.28327,0.622742,0.418808,-0.343597,-0.947544,0.845278,0.746813,0.55617
0.668416,0.6061,-0.680256,-0.281672,0.54381,-0.558644,0.762412,-0.533488,-0.684934,0.35667,0.320449,-0.615041,-0.312897,0.823596,-0.66062,-0.344734,0.918794,0.212925,-0.348208,0.25161,0.0488136,-0.192604,-0.821053,-0.0387682,0.950997,-0.618998,0.184588,0.359977,0.921887,-0.0612211,0.162634,0.608181,0.202217,0.162392,-0.368167,0.855441,-0.24084,0.534787,0.889685,-0.501685,0.878758,0.989055,0.398718,0.507273,0.511555,0.620394,0.409876,0.0383402,-0.273495,-0.818967,-0.503043,0.825406,0.637898,-0.0559501,-0.906292,0.360365,0.99176,-0.797604,-0.219266,-0.64215,-0.752114,-0.279646,0.550949,-0.0594693,0.163975,0.764869,0.310063,0.0818913,-0.316253,-0.518881,-0.422511,0.784186,0.23299,-0.566407,0.894438,0.715975,-0.749893,-0.976189,0.364672,-0.373592,0.166291,-0.761467,0.321375,0.276271,-0.0506824,-0.697825,0.757321,0.383578,0.965004,-0.751474,0.107212,-0.129933,0.578664,0.345214,0.249147,0.716433,-0.861628,0.75775,0.665449,0.525077,-0.361976,0.476124,-0.799086,0.146254,-0.0835829,0.518333,0.00835461,0.977971,-0.259693,0.680519,0.0592862,-0.296531,-0.920947,-0.453421,-0.0525308,-0.713073,-0.833717,-0.455091,0.194526,0.0353122,-0.968569,0.759597,0.848993,-0.419051,0.573979,0.963453,0.831649,0.00153468,-0.685863,-0.471061,-0.904815,0.213353,-0.689378,0.578985,0.352699,0.74341,0.182621,0.577403,-0.515565,-0.294435,0.891791,0.896485,0.581758,-0.327893,-0.772716,0.258452,-0.22626,0.34078,0.898634,-0.0712522,-0.201255,0.416456,0.444174,0.772681,0.358226,-0.267327,-0.605329,-0.179922,-0.102788,0.345968,-0.485731,-0.468841,0.214153,-0.291421,0.359675,-0.862094,0.370588,0.306805,-0.851337,-0.569036,0.124236,0.352842,-0.677378,-0.498075,0.969314,-0.941175,-0.00413926,-0.475811,-0.269483,-0.984611,-0.573459,-0.279781,-0.338582,-0.0154428,0.377327,0.946698,0.873978,0.350526,-0.0447055,-0.787868,0.932494,-0.344655,-0.365951,0.178181,-0.0853209,0.231565,-0.256025,0.358201,-0.00584096,0.271362,-0.86346,0.321906,-0.195664,0.976789,-0.580844,-0.433762,0.940768,0.200977,0.621808,-0.827402,0.666574,-0.281564,-0.958542,-0.211116,0.232864,-0.769296,-0.357891,-0.126521,-0.961959,0.509479,-0.274301,-0.0822408,0.561295,-0.791273,-0.860583,-0.365531,-0.960333,-0.257335,0.605719,-0.984978,0.97607,0.672074,-0.554582,-0.0522659,0.962559,0.524557,0.747419,0.870668,0.395668,-0.328264,-0.0834298,0.90036,-0.697928,0.307404,-0.588686,0.442627,0.799742,-0.837586,0.0373565,-0.19007,0.758302,0.489903,0.210655,-0.48756,0.767594,0.880314,0.586618,-0.724881,0.18199,0.27136,-0.225313,-0.199147,0.717171,-0.574354,-0.55695,0.322679,0.150805,0.542654,0.149426,-0.983697,-0.521769,-0.262834,0.399614,0.609116,0.439322,-0.727757,-0.303224,-0.550773,0.961888,0.992014,0.672027,-0.808767,0.761052,-0.715336,-0.152058,0.209588,0.182554,-0.877234,0.5869,-0.159404,-0.602086,-0.841525,0.0200784,0.725251,0.100488,-0.586783,-0.0463892,0.274845,0.901062,0.808028,-0.543803,0.160619,0.80107,-0.0549635,-0.581241,0.289492,0.751724,-0.656183,0.43356,0.475296,0.350451,0.275738,0.456952,0.543475,0.97304,-0.764934,-0.571518,0.861395,-0.656241,0.5703,-0.810572,0.848356,-0.403114,-0.81452,0.347311,0.829849,0.61758,-0.852998,0.433567,-0.491165,-0.672101,0.0216077,-0.960013,0.420339,-0.250003,-0.0519281,-0.606437,-0.633617,0.445272,0.0262294,-0.45721,0.034095,-0.387522,-0.640608,0.0320914,-0.136844,0.479396,0.770976,-0.266112,-0.411266,-0.910685,0.62326,0.223494,-0.496432,-0.0464983,0.0319873,0.505201,-0.38175,-0.952658,0.252695,-0.796271,0.341178,0.878938,0.0546266,-0.10074,0.296304,0.500653,0.330082,0.666923,-0.560032,-0.702735,-0.31092,0.289109,-0.812386,-0.856526,0.00240421,0.420325,0.934169,-0.769628,-0.261764,-0.01636,-0.614854,0.749001,0.820916,0.0622244,-0.18351,-0.109221,-0.451508,0.635473,-0.424884,-0.365352,0.602067,0.539946,-0.102309,0.363167,0.414386,-0.23741,0.301525,0.384998,0.635147,0.653352,0.491989,-0.501601,0.521054,0.0203233,-0.101195,0.800596,0.130266,0.0976975,-0.405641,0.219987,0.00904478,0.176136,0.94243,-0.701009,-0.168626,0.546835,-0.626492,0.614904,0.496859,-0.487782,-0.820232,-0.786232,0.446146,-0.82008,-0.3611,0.725253,-0.118976,-0.751362,0.340587,0.177887,-0.37977,-0.991499,0.479096,-0.847077,0.337041,-0.877498,-0.0578323,-0.234144,0.653813,0.651347,-0.711323,0.214355,0.109897,-0.749858,0.496631,0.202283,-0.180746,-0.55826,-0.993274,0.0428119,0.757999,0.991406,-0.730902,0.906181,-0.469073,0.298445,-0.576767,-0.815873,0.663386,-0.233598,-0.427943,-0.874058,-0.189649,0.784744,0.949831,-0.758107,0.776516,0.846433,0.294944,0.25603,-0.267105,-0.8806,0.620311,-0.114877,0.576227,0.736579,0.544398,0.420851,-0.993002,-0.366192,0.9168,-0.651233,-0.317109,-0.888246,-0.615012,-0.336184,0.529204,0.173947,-0.844274,-0.357283,0.955612,0.504977,0.656822,0.532439,0.89512,0.94078,-0.819123,-0.764545,0.498443,-0.765331,-0.476168,0.0357739,0.326897,-0.343084,0.823585,-0.0068984,0.749963,0.388468,0.0620346,0.28023,0.224957,0.285717,0.951457,-0.532052,-0.782048,0.668043,-0.950301,-0.245061,0.863956,0.979601,-0.479851,0.916841,0.915127,-0.292422,-0.401374,0.335721,-0.720697,-0.0575735,-0.178545,-0.219542,-0.0609237,-0.169451,0.420373,-0.913504,0.493224,-0.909449,-0.714638,-0.399256,-0.987905,0.823232,0.406089,-0.44093,0.448572,0.557906,0.44991,-0.0632618,0.170422,-0.41439,-0.0304634,-0.376079,0.191006,-0.797375,0.349709,0.268007,0.80452,0.449125,-0.665115,0.351554,-0.250189,-0.708813,0.95953,0.0265534,0.216659,0.605921,0.959495,0.459874,-0.375739,-0.950386,0.554783,0.849519,-0.439113,0.341174,0.282706,-0.946534,0.669534,0.850725,-0.84424,0.554778,-0.0315939,0.82746,-0.425301,-0.770047,0.709176,-0.133186,-0.884744,0.685868,-0.344858,0.122034,0.533242,-0.148875,0.455736,-0.671254,0.239986,0.311327,0.89237,0.935264,-0.102465,-0.584094,-0.389385,0.419419,-0.130837,0.0348517,0.0979532,0.0927079,-0.408956,-0.361424,0.590542,-0.492433,0.768957,0.076271,-0.197607,0.00871346,0.264985,0.211767,0.469199,-0.967865,-0.0852712,0.496377,0.72847,0.889707,0.969559,0.582052,0.630515,0.189309,-0.596354,0.0856914,-0.95391,0.850352,0.0316447,0.0229035,0.491493,-0.946083,-0.322819,-0.670937,0.0278612,0.342453,-0.276631,-0.55172,-0.485528,0.665134,0.215219,0.291124,-0.93574,0.157483,0.72649,-0.419406,-0.436397,0.574417,0.908493,0.435116,-0.0224129,-0.104768,0.160048,0.902175,0.901399,0.805466,-0.280819,-0.138324,-0.82529,0.0307397,0.367839,0.720338,0.240038,-0.606683,-0.897427,0.425799,-0.228183,0.373799,-0.79176,0.559241,-0.24273,0.921785,-0.538548,-0.0380762,-0.066255,0.565775,0.0259951,0.158772,-0.947823,0.545313,0.653665,0.860223,0.8738,0.796807,0.736186,0.804434,0.925376,0.850283,0.398082,0.0736466,0.685943,-0.713914,0.944895,0.88203,0.622566,-0.871234,0.434412,-0.171969,-0.775099,-0.383494,0.219015,-0.713107,0.0695194,-0.664267,-0.78261,-0.106207,0.264263,0.200106,0.353502,-0.302273,0.788737,-0.700914,-0.51446,0.0643584,-0.0399863,-0.0804114,0.751535,0.67622,-0.702126,0.996728,-0.494613,-0.0435143,0.965776,-0.301749,-0.616813,-0.583385,-0.287199,0.499456,0.963355,-0.924582,0.441668,-0.48559,0.608507,-0.642333,0.688729,0.200602,-0.109337,-0.328996,-0.348086,0.797696,-0.43279,0.851088,-0.262551,-0.584432,-0.419005,-0.845946,-0.00379591,0.795327,0.375107,-0.160339,-0.368969,-0.255667,-0.544187,0.957068,0.271237,0.378746,0.454877,0.0614417,-0.979083,-0.814971,-0.294331,-0.493719,-0.846562,0.215188,0.303073,0.596247,-0.323993,0.385372,0.0713565,0.608185,0.150477,-0.896454,0.655808,-0.315654,0.680607,0.41087,-0.0472549,0.939697,-0.523277,-0.141496,0.464775,0.854026,0.205034
-0.745174,0.984572,-0.401985,0.595258,0.850948,-0.874843,0.0488054,-0.674607,0.894173,-0.590351,-0.608041,-0.551437,-0.262824,0.674243,-0.274558,0.123124,-0.520075,-0.21034,-0.0484142,-0.985643,0.0612005,0.69511,-0.138938,-0.0694672,-0.717171,-0.7292,-0.73517,-0.690139,-0.647441,-0.666204,-0.683681,-0.0595523,-0.821244,-0.722271,-0.783609,0.125399,-0.503411,0.473597,0.345753,0.21928,0.646182,-0.0601473,-0.594622,-0.0897918,-0.924117,-0.0752261,0.564883,0.708736,0.300137,-0.468987,-0.555952,-0.558105,0.933312,-0.322535,-0.714429,-0.226907,-0.798463,-0.73575,0.281488,0.650944,-0.155664,0.785366,-0.503742,0.314995,0.722043,0.50789,0.508119,0.958831,0.681986,-0.575897,0.199667,-0.312983,0.386644,-0.602001,0.717262,-0.975691,-0.871667,-0.541848,-0.138446,-0.749888,-0.659854,-0.807277,0.353335,0.0789008,-0.0357517,0.379719,-0.0935661,0.50196,-0.690574,0.418362,-0.901285,-0.569465,0.199207,-0.513846,-0.843703,0.266549,0.180925,0.355746,0.41157,0.4725,0.744059,-0.401051,0.83633,-0.375754,0.128547,0.690095,-0.349574,0.981333,0.556227,-0.452091,0.372512,-0.500585,-0.43824,0.625056,0.442505,-0.496871,-0.226283,0.140877,-0.342681,0.887828,0.0444349,0.990691,-0.00456455,-0.754736,0.495613,0.870511,-0.28856,0.817931,-0.535355,0.217398,-0.0196475,-0.958111,-0.973748,-0.679652,0.254678,-0.0277708,-0.195603,0.819389,0.9425,0.174619,0.0347255,0.953131,-0.083276,-0.0134739,0.524282,-0.796126,-0.0504779,-0.405299,0.38247,-0.344984,-0.722229,0.879821,0.303953,0.383828,-0.112576,-0.456309,-0.324188,-0.714692,0.303272,-0.535092,-0.010721,0.40205,0.150615,-0.773706,0.367209,-0.743851,0.986473,0.612246,-0.647717,-0.739756,-0.983592,-0.404209,0.900837,0.912524,-0.599615,-0.611081,0.343095,-0.351358,0.924743,0.975706,0.540268,0.249423,0.753276,0.554039,0.702512,-0.130473,-0.579073,-0.895769,0.154126,-0.0861277,0.819849,0.541522,0.32682,0.0682065,-0.746,0.815179,-0.811103,-0.574032,0.889111,0.169638,0.560928,0.813865,0.634107,0.140564,-0.410611,-0.064401,-0.51812,0.904538,0.52312,-0.984979,0.294284,-0.808287,-0.734302,-0.581738,0.26215,0.558263,0.212951,0.476067,0.728722,-0.62237,-0.508707,-0.141326,-0.15526,0.979712,0.859815,-0.808455,0.121757,-0.419356,0.167264,0.156607,0.46222,-0.780702,-0.918433,0.00437734,-0.684416,0.858751,0.612032,0.644277,-0.376753,0.265411,-0.327336,-0.591075,0.529674,-0.31954,0.086295,0.457575,-0.766925,0.867172,0.834759,0.678635,-0.197917,-0.438206,0.777675,-0.929749,0.513834,-0.422571,0.711955,-0.943471,0.461931,-0.00685296,0.0455237,-0.309495,-0.960252,-0.985272,-0.810993,-0.251509,0.673203,0.809821,-0.988041,-0.187801,-0.282412,-0.521503,0.0120784,-0.274449,-0.913903,-0.732885,-0.160298,-0.605334,-0.213744,-0.684277,0.350668,0.225937,-0.49598,-0.970607,-0.37475,-0.386063,-0.840106,0.954168,-0.81674,0.376414,-0.539797,0.584901,-0.331819,-0.462113,0.104188,-0.0557436,-0.36498,-0.205238,-0.0637777,-0.427241,0.506357,-0.561912,0.57975,0.135171,0.410273,0.327671,0.460654,0.346335,-0.0783422,-0.722958,-0.992676,0.668648,0.597682,0.0539426,-0.451745,-0.220416,0.158924,0.910503,0.921355,-0.916401,0.255316,0.420477,0.51731,-0.0677933,-0.831048,0.706077,-0.433396,-0.0881282,0.643912,-0.0503378,0.503169,0.785181,-0.970406,0.620261,-0.805876,0.187519,-0.550539,0.0377684,-0.804213,0.922029,0.534948,-0.00875208,0.595182,0.123446,0.695208,-0.0397253,0.397781,-0.534882,-0.651615,0.12061,-0.780516,0.670317,0.231622,0.976857,0.696159,0.49982,-0.332639,-0.0461865,0.113997,-0.523399,0.580381,0.59005,-0.487858,0.956977,-0.574711,0.300252,-0.573038,-0.887361,-0.552937,-0.144413,0.0761648,0.222964,-0.579572,0.982933,-0.89702,0.90156,0.517377,-0.575893,-0.822304,-0.940287,-0.651124,0.342848,0.0717287,0.046383,0.924066,-0.339181,0.19524,-0.906544,0.0322607,-0.245605,-0.561079,-0.113377,-0.950909,-0.541243,0.106181,0.239646,0.14788,0.7493,0.44583,-0.789579,0.25213,-0.360523,-0.0117507,-0.0119244,-0.723042,-0.0312276,0.741045,-0.564231,-0.213236,-0.974722,-0.944413,-0.879448,-0.102124,-0.14286,0.605646,-0.594411,0.537649,-0.604747,-0.950761,-0.0453301,0.583975,-0.356455,-0.317111,-0.493495,-0.860205,0.829654,0.106024,0.934598,-0.143707,-0.470468,0.735659,-0.650914,0.715144,0.297609,-0.33553,0.297519,-0.412587,0.424884,-0.305782,0.816902,0.924754,0.702949,-0.600387,0.881864,-0.451767,0.0527063,0.292311,-0.312128,-0.378353,0.482743,0.263641,0.713966,0.0884107,-0.405132,-0.850351,0.49054,-0.426764,0.379374,0.881023,-0.904521,-0.278414,0.146984,-0.555849,-0.238997,0.345637,-0.780902,-0.50001,-0.898557,-0.959411,0.931974,0.445624,0.865229,-0.115718,0.348089,-0.0129424,0.513004,0.193978,-0.634776,0.394204,0.802337,0.306015,-0.761538,-0.78627,-0.2324,-0.97258,0.0670944,0.318504,0.318556,-0.868494,0.953716,0.441563,0.816804,-0.902688,-0.112561,-0.835158,0.936734,-0.274083,-0.842376,0.855854,-0.782434,0.0649889,-0.634443,-0.591303,0.270153,0.263855,-0.876896,-0.73945,-0.312441,0.340843,0.0618035,-0.520585,0.256333,-0.245715,-0.792337,-0.0323829,-0.645104,-0.833401,0.694392,-0.516446,-0.434256,-0.529914,-0.298233,-0.967984,0.383103,0.946828,0.870766,-0.870126,-0.748294,-0.542775,-0.683337,0.731862,0.670638,0.35153,0.605176,-0.724003,0.17026,-0.672012,0.498271,0.970634,0.879028,-0.757831,0.151547,-0.672538,0.729006,0.025072,0.299211,-0.720182,-0.875832,-0.900347,-0.269113,-0.552193,0.293322,-0.0132465,0.400424,-0.442205,-0.0722183,0.137966,-0.307757,-0.0779588,0.99932,0.125044,0.871046,0.509614,0.899613,-0.104052,0.589557,-0.763525,0.659016,-0.578675,-0.454848,0.729745,0.352786,0.727828,0.0769267,-0.370161,-0.412335,0.217805,-0.894326,-0.412753,-0.204791,0.997412,0.598266,-0.270032,-0.633594,-0.69323,-0.178925,-0.428349,-0.661132,-0.993399,0.836646,0.412444,-0.563971,-0.43509,-0.635952,0.567345,0.183895,-0.766361,0.364298,0.125365,0.53341,0.231074,0.960757,-0.967128,0.839372,0.837018,0.987971,-0.456023,0.281127,0.935619,0.102513,-0.595077,0.0170627,-0.879951,0.472488,-0.603433,0.448349,0.567075,0.496094,-0.991182,-0.240173,0.524487,0.848071,0.245454,-0.927264,0.525898,-0.50935,-0.246517,-0.857841,0.842246,0.569187,-0.345227,0.746786,0.584898,-0.066156,0.376548,0.513282,0.516678,-0.78314,0.32871,-0.383854,-0.683825,0.651746,0.638713,0.286196,-0.98637,-0.759203,0.296248,-0.455881,0.631814,0.0230705,0.99662,-0.2925,-0.19092,-0.996327,-0.571176,0.254469,-0.256772,0.686928,-0.722649,0.558779,0.959367,-0.268865,-0.514218,-0.400014,0.427519,-0.22675,-0.308311,0.0775429,-0.942529,0.557594,-0.461277,0.945072,0.358028,-0.610762,-0.484813,-0.292214,-0.505074,-0.960039,-0.742938,0.552087,-0.90397,0.163296,0.085438,-0.512149,0.256617,0.403002,-0.655006,0.246721,0.776173,0.016297,0.0841222,0.685686,0.771615,0.718213,0.140008,-0.970197,-0.355646,-0.620577,-0.226348,-0.368739,0.566228,0.451001,-0.0705263,0.66478,0.806665,0.122244,-0.377373,-0.247195,-0.492277,-0.205332,-0.908208,-0.289205,-0.9715,-0.755489,0.686004,0.917472,-0.457413,0.642664,0.881925,-0.703182,-0.452784,0.456192,-0.494837,-0.616897,-0.769363,0.266118,-0.369744,0.359189,-0.235553,-0.846204,-0.345649,-0.753138,-0.902879,0.738406,-0.516149,-0.295684,-0.745758,-0.822277,0.297102,0.364514,-0.303874,-0.384769,0.450258,-0.0191605,-0.850663,0.268587,0.829143,0.988293,-0.946583,-0.479048,-0.073037,0.311547,-0.855586,-0.422346,0.821882,-0.242957,-0.866199,-0.970986,-0.459409,0.0502685,0.0911409,-0.810421,0.842267,0.792426,0.846893,-0.318054,-0.767863,-0.807056,-0.0459916,0.340951,0.838839,0.30809,-0.865602,0.0171946,-0.0743722,0.450369,0.63814,-0.824909,0.778326,0.132067,0.415173,-0.532748,0.582309,-0.708574
-0.244604,-0.437516,0.215743,0.802694,0.681304,0.0652987,0.149197,-0.704394,0.222234,-0.385376,0.0561304,0.056641,-0.0894563,0.114979,0.269396,0.623242,0.764513,0.580271,-0.0757928,0.265182,-0.75346,0.882887,0.563456,-0.230261,-0.893611,0.133128,0.00859189,0.960926,0.501062,-0.958948,-0.346353,-0.190965,0.507696,-0.160344,-0.432536,-0.776912,-0.385849,0.271509,0.432873,-0.735621,-0.861943,-0.809206,-0.766245,0.213189,0.489217,-0.821739,0.567526,-0.526687,0.239402,0.592051,0.933125,0.116794,0.0487019,-0.909522,-0.404678,0.786659,0.183576,-0.601431,0.0282912,0.937377,0.660261,0.470135,-0.944309,0.584822,0.683757,0.293177,-0.96034,0.654523,0.582966,0.866069,-0.488458,-0.426523,-0.888233,0.63027,0.981518,-0.27267,-0.265867,0.0977156,0.624745,-0.917118,-0.776505,0.38491,0.553295,0.999581,-0.195191,-0.125208,0.995782,0.719077,-0.175294,0.526561,0.63892,-0.0985884,0.249145,0.910449,0.321904,-0.561871,-0.265572,0.377472,0.991048,-0.846426,0.021159,0.688697,-0.269891,-0.84164,-0.992455,0.148381,0.670198,-0.219738,-0.881807,0.662943,-0.57236,-0.165648,0.268444,-0.71639,0.242424,0.954872,-0.356031,0.140605,0.626874,0.484078,0.89498,-0.752494,-0.387608,-0.411605,-0.251481,0.566869,-0.738145,-0.256315,0.635628,0.0470379,0.566738,0.233287,-0.272172,-0.180668,0.0596685,0.31519,0.40854,0.483342,0.126828,-0.981717,0.427471,-0.837547,0.975994,0.347635,-0.366637,-0.0948955,0.879827,-0.171854,0.0778234,-0.667884,-0.540784,-0.377154,-0.371182,-0.830969,0.585216,0.166927,-0.900731,0.693231,-0.0205155,-0.117872,-0.964606,-0.761047,-0.574479,-0.820198,-0.448187,-0.211518,-0.914988,-0.990022,-0.360121,0.354137,0.777392,-0.0329056,0.0181013,-0.13624,-0.847456,-0.45053,0.724514,-0.739074,-0.814978,0.996708,0.51668,0.397727,0.225972,0.37498,0.383959,0.845926,-0.516706,-0.0576096,-0.48279,-0.131516,0.327653,0.977278,-0.632259,0.726283,0.0159444,0.764355,0.893601,0.698646,0.478386,0.926006,0.84879,0.394239,-0.404633,0.956269,-0.108012,0.338496,-0.532331,0.292219,-0.929095,0.284054,0.394813,-0.436837,-0.566381,0.162831,-0.254054,-0.208418,-0.477759,0.652132,-0.133955,0.431636,-0.349617,0.453791,0.81765,0.059121,-0.502315,0.640067,-0.439273,0.193303,-0.575876,0.329909,-0.53063,0.904248,0.493054,-0.465428,0.0780672,0.814011,-0.445676,-0.125056,-0.876252,0.98461,-0.297973,-0.184339,-0.868852,0.978176,-0.116093,0.781879,-0.0401733,0.35788,-0.70765,0.83697,-0.928302,-0.264812,0.424015,0.907185,0.783193,0.93402,-0.415475,0.929801,0.631316,0.866179,-0.604743,-0.541475,-0.789142,-0.778997,0.355791,0.0451236,0.970418,-0.785219,-0.861928,0.764788,0.128485,0.45555,0.0101549,-0.483257,0.830326,-0.388494,0.806773,0.558869,-0.87001,-0.690768,-0.416028,0.397254,0.947382,-0.931416,-0.109056,-0.538376,-0.636374,-0.210981,0.249031,0.152312,-0.840527,-0.778854,0.78732,-0.11495,-0.309077,-0.395837,0.479128,-0.094194,-0.375697,-0.14147,-0.235797,-0.120121,0.618935,0.384555,0.221566,0.881032,0.51022,-0.0631637,-0.0554066,-0.509126,-0.852246,0.415841,-0.581645,-0.350673,-0.740456,0.215711,0.727597,0.136464,0.594926,0.939774,-0.642251,0.657985,-0.60913,0.559875,0.855288,-0.723815,0.623545,0.369727,0.56046,0.618955,0.988369,0.644161,0.558268,0.0720303,-0.627653,-0.32895,-0.514066,0.73157,0.504559,0.568823,0.2446,-0.583472,0.139028,-0.600318,0.0511145,0.497724,-0.153702,-0.407388,0.0750039,-0.633903,0.083769,-0.516325,0.90954,0.198701,0.171929,-0.924743,0.409267,-0.129826,-0.789235,0.212501,0.820783,0.00894992,-0.769786,-0.153837,-0.015536,0.968554,0.732444,-0.368866,-0.839891,0.691505,-0.714226,-0.319822,-0.160576,-0.105506,0.51798,0.691287,0.0831094,-0.00909171,-0.367895,0.444483,0.321465,-0.276715,0.308707,-0.577565,-0.0775518,-0.425506,0.575409,-0.568095,-0.432544,-0.26437,-0.348906,-0.41364,-0.508612,-0.305756,0.0491692,0.781662,-0.633838,-0.313351,0.974244,0.352587,-0.496083,-0.2412,0.519094,0.73737,-0.257892,0.164136,0.998382,0.942627,-0.307115,-0.557275,0.939077,-0.275111,-0.273323,0.32707,0.0803792,0.0283209,0.611781,0.162141,0.560014,0.95718,-0.383335,0.995752,0.345575,-0.585099,0.587695,-0.178014,-0.247289,0.908413,0.63421,-0.611297,0.386511,0.480324,-0.980539,0.507616,0.847809,-0.811855,0.662805,-0.104974,0.41659,0.687312,-0.503085,0.87583,-0.353441,0.250846,0.589036,-0.967416,-0.589913,-0.644639,0.700338,-0.108278,0.912768,0.830214,-0.77739,0.798673,0.337535,0.876594,-0.585297,0.100402,0.92428,0.229342,-0.332689,0.908321,0.839234,-0.832103,0.359862,0.129743,-0.309793,-0.728999,-0.753062,-0.673624,-0.211731,-0.776775,0.920613,0.224032,0.489496,-0.913995,0.648909,-0.942688,-0.643233,0.402473,0.431605,0.931898,0.626444,0.604751,-0.154398,-0.147526,-0.830296,0.515561,-0.300655,0.516799,-0.332232,0.510092,-0.705386,-0.277663,0.485095,0.668835,0.947466,-0.637846,0.510239,-0.285658,-0.153155,-0.223982,-0.275779,0.764076,0.75091,0.0472877,0.459999,-0.944292,-0.42633,0.835782,0.00895598,-0.208295,0.25068,-0.248676,-0.209609,-0.869012,0.347933,-0.777407,-0.982865,-0.163498,-0.679766,0.918569,-0.616233,0.464656,-0.820961,0.503358,0.0111823,-0.870647,-0.66123,0.288403,-0.896012,0.402241,-0.566497,-0.197567,0.197442,-0.494327,0.741335,0.799815,-0.791346,-0.50859,0.273086,0.730666,-0.405359,0.789907,-0.235464,0.832359,0.85795,-0.297614,-0.744067,-0.939062,0.69015,0.927165,0.248478,-0.00166232,0.598709,0.278039,-0.986987,0.64694,-0.725629,0.11507,0.390003,-0.893278,-0.773302,0.50862,-0.708198,-0.709825,-0.221293,0.96943,-0.721381,0.992611,-0.658715,0.151081,0.273586,-0.327263,0.133505,0.416448,-0.341775,0.733912,0.0651846,0.575554,-0.735711,-0.481329,0.669274,0.891524,0.0871684,0.602164,0.511366,-0.92904,0.151905,-0.237053,0.463722,0.601075,-0.965425,-0.272979,-0.338613,0.765608,-0.801017,0.724204,0.182939,-0.22951,0.247537,0.116066,0.913544,0.895286,0.278234,0.645558,-0.359746,0.492191,-0.447914,-0.40778,-0.655593,0.959704,-0.979137,0.130725,-0.547782,0.136979,-0.721092,0.137265,-0.550097,-0.68936,-0.138256,0.357912,-0.839197,0.734842,-0.888673,0.0236296,0.381459,-0.773518,-0.172376,-0.421085,0.466687,-0.119121,-0.990526,-0.601011,0.559876,0.497834,-0.517742,-0.281345,0.16265,0.364447,0.229075,0.837844,-0.403312,-0.367557,-0.362934,-0.965519,0.492238,0.107649,0.819625,0.0840039,0.167868,0.864279,-0.281645,-0.782073,0.790331,0.493999,0.489497,-0.140563,-0.732125,0.413573,0.851819,-0.0835506,-0.421179,-0.277557,-0.45276,-0.751508,-0.634854,0.00475323,-0.0778443,0.802336,-0.953245,-0.355423,-0.853734,-0.372343,0.507897,0.944188,-0.544464,0.837658,0.073958,0.442984,-0.0111363,0.757027,0.00195802,0.944976,0.26518,0.578989,-0.540514,-0.86771,0.666818,-0.0468926,-0.745067,-0.782258,-0.7398,-0.724954,0.540294,-0.798245,0.170141,-0.851661,-0.527273,-0.0170997,-0.79135,-0.504856,-0.392566,-0.57317,-0.887852,0.764059,0.168208,-0.590257,0.233987,0.120296,0.345779,0.277335,-0.326333,-0.977914,0.17946,-0.906346,-0.995252,0.358342,-0.397785,0.147551,0.660603,-0.590558,-0.255277,-0.655279,-0.0343975,-0.970029,0.417748,-0.367198,0.373623,-0.337959,-0.0470188,0.882313,-0.668137,0.783338,0.599893,0.339372,0.532314,-0.781421,0.414706,0.237911,0.993359,-0.588859,-0.873191,0.807139,0.704154,-0.195239,0.370507,-0.450635,-0.246295,-0.364786,0.354535,-0.282821,-0.456066,-0.189963,-0.695427,-0.143133,-0.0975308,0.138088,-0.318291,-0.231363,-0.888652,0.70556,-0.00566852,-0.40254,0.36589,0.286609,-0.759113,0.5533,-0.696862,0.0814129,-0.0389589,-0.475955,-0.835541,0.680528,-0.416763,0.695477,-0.788982,-0.888795,0.374485,0.0848867,-0.402201,0.248873,0.163498,0.833416
0.573185,0.357134,-0.12965,-0.601683,-0.140506,0.279833,-0.53622,0.881343,-0.379994,-0.808764,0.469917,0.1072,-0.841204,-0.961731,0.349154,-0.611566,-0.512492,-0.860782,0.451195,0.901757,0.649414,0.163733,-0.950562,0.244501,-0.195792,0.389453,0.664164,0.920933,-0.494243,-0.871074,0.296464,-0.48159,0.631019,0.974877,0.360107,0.074072,-0.331764,0.780995,-0.783129,0.069607,-0.319957,0.485937,0.818028,-0.675759,-0.425545,-0.903588,-0.79104,-0.723837,0.133349,-0.180909,0.0904087,0.0395125,-0.423378,0.736531,0.17073,0.101664,-0.660667,0.422178,-0.0484081,-0.460174,0.415473,-0.758916,0.0756648,0.320437,0.210502,0.529174,0.188856,0.897025,0.228504,0.102263,0.33931,0.787184,0.580919,-0.170447,0.348917,-0.959567,-0.427018,0.498147,0.262509,0.384879,0.0732566,0.914827,-0.43967,0.902758,-0.837038,-0.0188859,0.535405,-0.152666,-0.677147,-0.934829,0.47123,0.102795,0.781252,0.0130916,-0.0795517,0.450899,-0.356359,0.0704779,-0.898296,0.377348,0.923645,-0.0587378,0.0269644,0.394583,-0.452265,-0.945338,0.645837,0.496972,0.788734,-0.0863047,0.225512,-0.431797,-0.658158,-0.410598,-0.150006,-0.491229,0.155369,0.304375,-0.0895504,0.358703,-0.616124,0.356384,0.0643775,-0.983082,0.320945,-0.802633,-0.138935,-0.45875,-0.664477,-0.804917,0.876005,-0.786831,0.38013,-0.662567,0.132243,0.667504,0.696796,-0.821931,0.146444,-0.360933,-0.740815,-0.433158,0.297615,0.377992,-0.864083,-0.523676,-0.11433,-0.852824,0.168965,-0.655298,0.942877,-0.0394981,-0.910824,0.797049,0.0355275,0.413981,-0.494599,0.683167,0.278442,-0.412133,-0.170418,0.705477,0.0721624,-0.808555,0.628017,-0.503411,0.0503661,0.861462,-0.746813,-0.637448,-0.416597,-0.464675,0.890434,-0.612479,0.242276,-0.203517,0.393839,0.848605,0.631923,-0.188356,-0.933049,0.63847,-0.473002,-0.289339,0.755604,0.788471,0.803599,-0.913274,0.0699396,0.680797,-0.160507,-0.345184,-0.852996,0.494475,-0.459743,0.124084,-0.763977,-0.906827,-0.435758,0.424768,-0.341327,-0.850173,0.77547,0.0498568,0.559038,0.942946,0.0513606,-0.983781,-0.168669,0.750832,0.319035,0.503989,-0.805638,0.0472482,0.810975,0.565585,0.225953,-0.709205,-0.505775,0.910031,-0.921883,-0.215127,-0.483243,0.609533,-0.47343,-0.588338,-0.759195,0.394008,0.325824,-0.321755,-0.274285,0.900173,0.205003,-0.217965,0.103229,-0.542106,0.710097,0.663903,-0.703911,-0.875707,0.408795,0.15275,0.451842,-0.962775,-0.232918,0.514309,0.345106,-0.133941,-0.804384,0.56613,-0.319913,-0.957508,-0.0345371,0.281263,-0.775429,-0.779574,0.155577,0.579939,0.63795,-0.208751,-0.0942556,-0.319441,0.767365,-0.72803,-0.650362,0.320332,-0.0325438,0.361004,-0.550156,-0.651828,-0.844405,0.92804,0.620047,-0.08781,-0.316098,0.476753,-0.536703,0.856923,-0.915718,0.435152,-0.410469,-0.535905,0.899533,-0.388222,-0.808918,-0.768768,0.379194,-0.50983,-0.637186,-0.0456922,-0.122915,-0.615201,0.532196,0.178226,-0.600691,-0.819891,-0.829405,0.123561,-0.480015,0.583648,0.631055,-0.959639,0.832501,-0.371955,-0.763994,0.918215,0.527769,0.734966,-0.271385,0.231893,-0.133036,-0.224771,0.972959,0.269279,0.356522,-0.07346,0.453575,-0.452386,0.202352,0.63665,-0.210746,0.0548015,0.0659932,0.0544125,-0.163086,-0.172522,-0.203163,-0.640786,-0.352408,0.649959,-0.759283,-0.861857,0.822787,0.840787,-0.496415,-0.866536,0.37126,-0.597603,-0.281452,-0.362531,-0.728061,0.751971,0.19998,-0.673745,0.643792,-0.132301,0.0559936,-0.941826,-0.456047,-0.0882557,0.894654,-0.969999,0.971259,0.224459,0.824825,0.395553,0.277716,-0.021747,-0.0365714,0.391165,0.320738,0.734549,0.459412,0.25519,0.454146,0.730499,0.035013,-0.215445,0.590554,0.992751,0.212548,-0.0769032,0.599385,0.657549,0.521062,-0.165474,-0.638856,0.263984,0.767141,-0.00261364,-0.580053,-0.610747,0.277674,-0.807482,0.896691,-0.371325,-0.232502,0.365181,0.440934,0.452735,0.877445,-0.64779,0.60555,-0.524467,0.936555,-0.221368,0.942248,0.773582,-0.209318,0.227436,0.0711912,-0.103382,-0.458831,-0.821119,0.72167,-0.572822,0.977665,0.539783,0.643535,0.853706,-0.857206,0.0396795,-0.86241,-0.773262,-0.00908632,-0.201668,0.0616108,0.242019,0.256118,-0.857731,-0.834979,-0.701055,0.59735,0.346023,-0.469223,0.870277,-0.705859,0.538046,0.224328,0.974046,-0.577065,0.0831219,0.895471,0.882678,0.501835,-0.393939,0.271382,0.910849,-0.256299,0.395532,-0.182103,-0.909849,-0.486269,-0.218844,0.435154,-0.656806,-0.692375,-0.0620801,0.879094,0.215394,0.0917669,-0.486382,-0.56093,-0.707362,0.861005,0.465004,-0.956054,0.206632,-0.473902,-0.940007,-0.888961,0.0765304,-0.467675,0.166463,0.181126,-0.877076,-0.270469,0.31887,0.117495,0.210089,-0.424916,-0.713311,0.0708297,0.226636,-0.427611,0.780362,0.249264,-0.509165,-0.548688,0.993024,-0.884858,-0.492267,-0.832795,-0.293696,0.272231,0.500041,0.457362,-0.308882,0.903575,-0.0856495,0.0489146,-0.384833,0.0137293,0.779039,0.900458,-0.4437,-0.301642,0.934608,-0.174572,-0.026469,0.518217,0.376341,-0.966891,-0.70593,-0.0762807,-0.747666,-0.734278,-0.609559,0.995002,0.585197,-0.971851,0.506341,0.0720029,-0.704218,-0.556943,0.0308696,-0.470492,0.833073,-0.471348,-0.642397,0.49661,0.555731,-0.838092,0.598678,-0.0195814,-0.48278,-0.698053,0.279924,-0.31013,0.436864,-0.514509,0.13932,-0.538284,0.831203,-0.520749,0.590186,0.0324975,-0.132598,0.0911172,0.443351,-0.482483,0.213391,-0.450793,-0.112604,-0.43339,0.371542,0.0658703,0.354212,0.919822,0.239528,-0.656,-0.503639,0.817252,-0.707441,-0.767019,0.114283,-0.832007,0.743299,-0.609847,-0.294559,-0.0875545,-0.534235,0.451231,-0.575504,-0.775244,-0.18533,-0.458706,-0.0674914,-0.781294,-0.689344,0.305634,-0.970212,-0.724483,0.18647,-0.583628,0.810448,-0.212023,-0.0785399,0.684536,-0.413011,0.550879,-0.380797,0.484991,-0.549949,0.265324,0.0250907,-0.913414,-0.474531,0.403532,-0.926133,-0.285104,0.755514,-0.736902,-0.0402842,0.859208,0.992016,0.935066,0.851541,-0.0516672,0.521715,0.354253,-0.739151,-0.318091,0.241676,0.165569,0.125452,-0.722653,-0.561666,0.485754,-0.208563,0.591684,0.659344,-0.539174,-0.545469,-0.960122,-0.577347,-0.704136,-0.398775,0.790906,-0.991964,-0.255802,0.278764,-0.0855492,0.8132,0.245991,-0.171074,-0.871948,-0.0919206,0.341903,-0.314627,0.246203,0.788217,-0.36561,0.450364,-0.410905,0.666996,-0.632463,-0.957361,-0.773985,-0.650064,-0.69228,0.915786,0.453926,-0.0178242,0.369178,0.917509,-0.199841,-0.406022,0.219542,-0.720812,0.943482,0.206461,0.468376,-0.606984,-0.558939,0.0305502,-0.534189,-0.254788,0.685339,-0.920403,-0.962389,-0.14193,-0.82745,0.625121,-0.532527,0.137157,0.787676,-0.680192,-0.449572,-0.0725217,0.864652,-0.78002,0.596327,-0.751206,0.543288,0.996804,-0.566255,-0.170315,0.246124,0.908861,0.429495,-0.15983,-0.385594,0.981139,0.339688,-0.339775,0.933223,0.554091,0.267111,0.253947,-0.202283,-0.840067,-0.260749,-0.452917,-0.385522,-0.736056,-0.857119,-0.0637057,-0.955503,-0.081425,-0.302693,-0.830043,0.380329,0.827481,-0.684361,-0.314731,0.297737,-0.471755,-0.0583287,-0.209888,-0.195305,-0.173212,-0.277043,0.861421,-0.089634,0.743454,0.265735,-0.763932,0.629269,-0.516756,0.0635815,-0.735271,0.304255,-0.373754,-0.688674,-0.187682,0.289485,-0.51803,-0.837791,0.114502,0.317068,0.884553,-0.787929,0.283649,0.0151584,-0.913392,-0.821733,0.211171,-0.560388,0.400168,-0.311703,0.569985,-0.711123,0.216151,0.82685,0.948922,0.181706,-0.315767,-0.351747,-0.161481,-0.814516,0.668976,0.925371,0.108094,0.877588,-0.235161,0.274046,-0.82603,0.33508,-0.474002,0.759348,-0.452167,-0.582155,0.418794,0.88929,-0.00343293,0.809201,-0.231147,-0.0181746,-0.618325,0.161089,0.606268,-0.482787,0.84591,-0.938055,0.525752,-0.912764,-0.379246,0.219726,-0.560675,-0.548425,0.108891,0.520435,-0.4101
0.164321,0.459965,-0.52845,-0.257944,-0.677725,0.902031,-0.525571,-0.851795,-0.286225,-0.285564,-0.830776,-0.139649,0.895037,0.727546,0.93916,-0.988653,-0.30011,0.442492,0.270606,-0.84112,-0.261967,-0.327496,0.879373,0.415674,-0.796506,0.356556,0.602845,-0.138569,-0.535593,0.37404,0.850711,-0.598882,-0.419404,-0.378595,-0.751486,-0.583685,0.657133,-0.883462,0.52364,-0.4852,-0.516606,-0.923858,-0.844841,0.53658,0.280948,-0.998172,-0.283185,0.997668,0.103822,0.656571,-0.26043,-0.0135206,0.606104,-0.261333,0.894611,-0.644216,-0.442375,-0.207027,0.438936,0.728808,-0.311053,0.799904,-0.510443,-0.175296,0.404965,-0.337618,-0.76572,-0.852928,0.415749,-0.141477,0.132985,0.768606,0.161275,0.541065,0.723148,0.15429,-0.240263,0.260454,0.503468,-0.720144,0.567588,0.475346,-0.0507288,-0.170177,0.277653,0.272591,-0.937039,-0.710824,-0.553304,0.733582,0.441358,-0.0136473,0.169049,-0.504391,0.754418,0.847283,0.261273,0.953522,0.504094,-0.203055,-0.300721,-0.415412,-0.0904134,-0.230448,-0.650454,0.354267,-0.895562,0.400097,-0.453002,0.74846,-0.628776,-0.0558344,-0.558355,0.564269,0.876959,-0.443683,-0.801128,0.0453508,-0.378405,-0.843937,-0.584552,0.490547,-0.525837,0.113118,-0.612133,0.298967,0.85567,-0.46442,-0.980661,0.15106,0.0584468,0.168925,-0.586102,-0.640979,0.968282,0.378336,-0.886423,-0.537169,-0.605168,0.12189,0.536332,0.142619,-0.795211,0.891137,-0.167128,-0.56704,-0.504886,0.508904,-0.631623,-0.781534,0.328226,-0.677784,-0.856251,-0.841249,0.799019,-0.300202,-0.681643,0.755438,0.15762,0.593201,0.445581,0.259832,-0.116843,0.395964,-0.321641,0.527269,0.20733,0.988997,-0.28028,0.6537,-0.0329619,-0.747125,-0.765497,0.879434,-0.57832,0.907969,-0.191471,-0.124174,0.853973,0.0264905,0.168454,-0.371895,0.659765,-0.103589,0.725686,0.311873,0.233543,0.538306,-0.92201,-0.138856,-0.304059,0.802542,-0.830948,-0.292187,-0.384436,0.349491,0.141585,-0.411911,-0.901976,-0.120733,0.742484,-0.339043,-0.977317,-0.880715,-0.355145,-0.155367,-0.139668,0.403304,-0.980446,-0.941088,-0.3164,-0.0713924,0.191326,-0.504542,-0.825734,-0.0653534,-0.652911,0.00936025,0.242397,0.102162,-0.901967,-0.279793,-0.762443,-0.75475,-0.196014,-0.219094,0.744784,-0.0367211,0.126173,0.649827,0.740195,-0.716879,0.842183,-0.266415,0.492887,-0.229821,0.477274,0.978405,0.624562,-0.413408,-0.638113,-0.983534,-0.956007,0.447211,0.300389,0.642999,0.142603,0.48914,-0.479726,-0.86631,0.228639,0.90248,0.0733602,0.705366,-0.285217,0.592066,0.259249,-0.994495,-0.97268,0.589956,0.38855,-0.437605,-0.339156,-0.27723,-0.232156,-0.889075,-0.525381,0.270095,-0.242768,-0.0290393,0.858315,0.896719,-0.0788666,-0.0759708,0.192155,-0.649834,0.307985,-0.868518,-0.588369,0.0898137,-0.796327,-0.954733,-0.913242,-0.207654,-0.0665288,0.811419,-0.133564,0.330179,0.691227,0.339203,-0.95876,0.251028,0.964203,-0.657819,-0.940719,0.174521,-0.609134,0.240206,0.33158,0.247818,0.864265,0.455659,0.0767567,-0.650732,0.129996,0.435346,-0.692155,-0.423698,-0.195604,-0.193745,-0.673383,0.404301,-0.372958,0.310386,-0.268966,-0.65542,-0.0790747,0.73745,-0.482442,0.289449,0.391528,0.246742,-0.945334,-0.742247,-0.741312,0.643912,-0.140972,-0.969012,0.869442,-0.403588,-0.503988,0.418559,-0.137324,0.308372,0.610077,-0.700053,-0.395313,0.699196,-0.402536,-0.163371,-0.581579,-0.770974,-0.0650306,0.354262,-0.580993,-0.637824,-0.941926,0.718889,-0.911834,0.962146,-0.261665,0.640049,-0.90411,0.989207,0.886114,0.654046,-0.987789,-0.563276,0.709906,-0.945948,-0.966808,-0.804178,0.579063,-0.718366,0.661969,0.00015378,0.15724,-0.718787,-0.0952332,-0.824087,-0.294288,0.231867,0.185904,-0.330518,-0.0476166,-0.769117,-0.0327055,0.117372,0.632033,-0.629301,-0.433637,0.538283,-0.874472,-0.968369,-0.622276,0.726279,0.973338,-0.480457,-0.121861,-0.485305,-0.3679,-0.68672,-0.19742,0.405853,0.207639,-0.206249,-0.725361,-0.620282,-0.362333,-0.625642,0.397921,0.998067,0.938498,0.599572,0.0701477,0.186428,0.245944,-0.396892,0.334186,0.799821,0.013307,0.150469,-0.258124,0.0607095,0.760628,0.496363,0.163676,0.94999,-0.103666,-0.170824,0.215713,0.187352,0.80181,-0.485106,0.396419,0.232877,-0.763229,0.192325,-0.00145916,0.89364,-0.404991,-0.175151,-0.95389,0.0556382,0.185809,-0.14824,-0.823286,-0.798786,0.0733393,-0.0247059,0.401332,0.929066,0.21493,-0.537637,0.338145,0.409577,-0.634649,0.635747,0.0106294,-0.326739,0.598202,0.234696,-0.795018,-0.534573,-0.216012,0.159544,0.350765,0.719562,-0.404753,0.287956,0.690086,-0.643253,-0.76571,0.829668,-0.610021,0.513979,-0.556218,0.942852,-0.893577,-0.870699,0.63579,-0.661083,0.908029,0.336066,0.677679,0.398443,0.0478958,-0.812465,-0.962356,0.80553,0.150826,-0.627059,0.0741843,-0.907701,0.580517,0.402106,-0.792887,-0.191186,-0.297203,0.0933931,0.781112,-0.847633,0.91116,0.0381666,0.276948,-0.751615,0.932894,0.138709,-0.101727,-0.21165,0.920835,0.42811,-0.947915,-0.72004,-0.168745,-0.861639,-0.826236,-0.00922054,0.148314,-0.856776,-0.0502809,0.473225,-0.34532,-0.741549,0.930831,-0.518987,-0.518418,0.506902,0.800927,0.143662,0.371241,0.189215,-0.432082,-0.346572,0.694623,-0.481335,0.925291,0.508947,-0.441354,0.418163,-0.0553721,-0.94479,-0.433198,0.927458,-0.169631,-0.0135533,-0.542132,-0.43582,0.221991,0.87844,0.0246819,0.65786,0.959426,0.0696385,-0.497252,0.904926,-0.429571,0.868058,0.618104,0.0857108,0.24894,-0.0280717,-0.527611,0.47136,0.593597,-0.237232,0.169225,-0.143902,-0.217978,0.394797,0.670746,-0.609331,0.541726,-0.614137,0.128508,0.666281,0.780635,0.24732,0.521446,-0.816688,0.110446,-0.547345,0.583641,0.408101,0.086367,0.457018,-0.729268,0.679215,0.473613,0.747458,0.0741736,0.192445,-0.698709,0.312891,0.799623,-0.991432,-0.199947,-0.502356,-0.428777,0.168545,-0.996229,0.460647,-0.000845906,-0.111135,0.825951,0.343279,0.615171,0.87491,0.0519277,-0.656443,0.710412,-0.429253,-0.51693,0.31771,0.336712,-0.196976,0.550961,-0.597651,0.683164,0.0809901,0.707756,0.557462,0.66408,0.657104,0.241234,0.934194,0.574562,0.500362,-0.457321,-0.996342,-0.375523,-0.858081,-0.886806,0.987003,-0.36093,-0.00702973,0.0723204,0.30916,-0.775943,-0.361881,-0.404882,-0.557737,0.390569,-0.78793,0.560135,0.220631,-0.764555,-0.500169,0.192653,0.622859,0.522135,0.967079,-0.157524,-0.377427,0.343838,-0.644619,0.9963,0.968381,-0.773384,-0.115572,0.0383201,-0.460963,-0.577225,0.0384955,-0.712382,0.351118,-0.00616254,-0.876547,0.192028,-0.787719,-0.803048,0.475064,-0.875459,-0.15588,-0.860308,-0.0502662,0.903077,-0.45215,-0.800332,0.255234,0.111712,0.483477,-0.815464,-0.560975,-0.817943,-0.442753,-0.0241472,-0.0225121,-0.326623,0.217239,-0.458375,0.889173,-0.952217,-0.530637,-0.184869,0.466852,0.162215,0.230598,-0.208278,-0.808553,-0.760631,-0.0897545,-0.0658244,0.553201,0.826431,-0.328686,0.76492,0.440735,-0.389983,0.117462,0.639684,0.235353,0.624333,0.0476037,-0.319973,0.514697,0.67247,-0.0826968,0.605676,-0.370755,0.428662,0.113166,0.0118831,0.549297,-0.90461,-0.708457,-0.678767,-0.284212,-0.284484,0.0104046,0.35498,-0.598024,0.998667,-0.857776,-0.396891,-0.730027,0.38761,-0.198815,-0.782124,0.392424,0.471644,-0.351663,0.499962,-0.365526,-0.815271,-0.13204,0.253771,0.178912,-0.137194,0.831027,0.928972,-0.622843,-0.60455,-0.695093,0.271546,-0.0549211,-0.947106,-0.767698,0.908194,-0.319763,0.80924,-0.856768,-0.183837,-0.259057,0.746813,-0.306834,0.91009,-0.91101,-0.322481,-0.875499,0.85276,-0.85256,0.906295,-0.267962,0.341707,0.515991,-0.787948,0.0105225,0.278091,0.387972,-0.468925,0.678984,0.210689,-0.568817,0.409142,-0.637507,0.5031,0.685559,-0.655905,-0.737853,-0.254824,-0.464652,-0.838193,-0.082929
0.447819,0.670053,-0.854175,0.25386,0.948287,0.192613,-0.174786,-0.194092,-0.246703,-0.747782,-0.225108,-0.0873948,0.442181,0.845708,0.47905,0.330181,0.0947635,-0.966983,0.414902,-0.988085,0.0823203,0.988966,0.612125,-0.853719,0.113765,0.231546,-0.390283,-0.0410972,0.641488,0.466787,0.781057,-0.965764,0.148172,0.848442,-0.475087,0.738847,-0.124095,0.625939,0.599055,0.527506,-0.899723,-0.998505,0.218268,-0.46419,0.033475,-0.309436,0.945675,-0.467508,0.702949,0.338732,0.312213,0.970431,0.218905,-0.0571091,-0.741486,-0.546078,-0.507047,-0.938773,-0.993888,-0.161864,0.872413,0.712902,0.512325,0.979604,0.196343,0.500731,-0.301944,-0.38568,0.137429,-0.416926,0.752813,-0.984651,0.305589,-0.929835,-0.447361,0.556758,-0.802902,-0.559306,0.402324,-0.661083,0.172592,0.175394,0.711578,-0.281849,-0.0127777,0.920535,-0.983678,-0.493161,-0.703424,-0.420717,-0.408881,0.594967,-0.384542,-0.852446,0.295149,-0.4746,0.229994,-0.0912024,0.590966,0.216963,0.777354,0.989262,-0.725987,0.824988,-0.709072,-0.483913,0.527984,-0.805708,-0.886402,0.143562,0.270476,-0.824569,0.0463629,-0.222091,-0.471306,-0.639491,0.57276,-0.484807,0.551194,0.0933956,-0.967441,0.0540125,0.353925,-0.447687,0.893315,0.99207,0.145841,-0.294633,0.852463,0.698834,-0.626681,0.850042,-0.468469,0.752877,-0.170331,0.743257,-0.00739198,-0.535516,0.00988162,0.764263,-0.45842,0.243681,0.619922,0.63839,-0.182211,0.730457,0.789138,0.869837,-0.630854,0.29666,-0.157946,0.294526,-0.90043,0.615436,0.474436,0.33566,0.0836275,0.349153,0.133938,0.829853,0.0866571,-0.0129883,0.304005,-0.106551,0.0489753,0.76081,-0.817685,-0.136479,0.791802,-0.191445,0.438847,-0.142393,-0.793176,-0.602956,0.441384,-0.856058,-0.449922,-0.185307,0.645066,0.80109,-0.264856,-0.831626,0.291448,0.772649,0.260304,-0.970004,-0.458187,0.0775245,-0.807896,0.722162,-0.00196909,0.690782,0.938212,0.0114575,0.163374,-0.0529521,0.902996,0.633384,-0.43812,0.200417,0.799207,-0.128306,0.567672,-0.630632,-0.984486,-0.622059,0.963648,0.733226,0.0293952,-0.776843,0.613483,0.12936,-0.261122,0.827004,0.901237,0.456693,0.665416,0.517333,0.833288,0.378637,0.799554,0.893507,0.897852,0.728121,-0.626999,0.0967289,-0.776492,0.156986,0.0806089,0.0400898,0.764099,-0.499874,-0.662687,-0.400553,0.768918,-0.3602,-0.0334617,-0.86053,0.51976,0.993617,0.838201,0.359421,0.273023,0.366315,-0.918445,0.584633,-0.937963,0.429991,-0.285848,0.118762,0.201232,0.33843,-0.796724,-0.292181,0.266124,0.141351,-0.860793,0.532457,-0.854486,0.617975,-0.248863,0.554777,-0.214655,-0.382113,0.702201,-0.495294,-0.616904,-0.35919,0.952461,-0.767416,0.907332,0.454652,-0.321014,0.0737901,-0.739905,0.233323,-0.563311,-0.392325,0.579472,0.128647,0.916664,0.67485,0.835809,-0.224394,0.450266,0.818304,0.765125,0.490191,0.394437,-0.0668807,0.861063,0.0403644,-0.336165,0.509618,0.33885,-0.494549,-0.261885,-0.0685592,0.0444511,-0.927763,0.889327,-0.513755,0.112054,0.118329,-0.240319,-0.341636,0.96308,0.946613,0.355465,0.126038,-0.176571,-0.585582,0.309226,-0.052784,0.140468,0.559693,-0.0606133,-0.659335,0.0578319,0.693562,-0.838955,0.907805,0.372359,-0.0156293,-0.247888,-0.230734,-0.541712,0.0535425,0.793516,-0.71156,-0.208426,-0.62775,-0.134012,0.522875,-0.954433,0.812609,0.407582,0.346276,0.263956,0.364097,0.980779,-0.0620685,0.561774,0.872305,0.456724,0.48697,-0.547224,-0.560371,-0.24553,-0.231547,-0.644394,-0.667368,0.615002,0.965076,-0.826653,0.643942,0.258484,-0.234528,0.0288424,-0.963039,0.0613383,0.521397,0.14196,0.124695,0.133071,0.882502,-0.78531,-0.339155,0.838482,0.489502,0.676723,-0.490408,-0.131523,0.968597,-0.00647261,0.134373,0.429289,-0.700079,0.0626887,-0.444954,-0.780242,0.789806,0.342381,-0.244277,0.288341,-0.865781,0.829581,0.279901,0.389499,-0.920446,-0.207309,-0.276262,-0.0609902,-0.0203583,0.47821,0.869785,-0.697271,-0.617855,0.328305,0.160569,-0.511317,-0.941316,0.662218,0.901322,0.376501,-0.418347,0.570651,0.58988,1.0075,0.208495,-0.952995,-0.321882,0.947089,-0.736485,0.0651074,0.231552,0.508449,0.151894,-0.980267,-0.633527,0.695858,-0.283394,-0.777338,-0.686021,0.846015,0.870281,0.963663,-0.0711059,-0.150098,0.47705,-0.303087,-0.295213,-0.980482,-0.0848857,-0.133311,0.86124,-0.111702,0.834878,0.0689792,0.905633,-0.654986,-0.844995,0.646999,-0.31812,0.909584,0.279741,0.549091,0.12487,-0.427676,0.970882,0.989748,-0.561828,0.08142,0.583748,-0.647429,0.436318,0.28866,0.285367,-0.768265,-0.28767,-0.602524,-0.75806,0.681188,0.394227,-0.9427,0.0364788,-0.535508,0.557231,-0.258926,-0.378029,-0.678192,-0.968843,-0.802688,-0.224844,-0.256105,0.546792,-0.263948,0.369771,-0.899789,-0.865486,0.33758,-0.425371,0.617367,-0.22476,0.346941,-0.0257597,-0.779545,-0.578102,0.0841945,-0.727407,-0.155314,-0.287163,-0.948739,-0.231484,-0.739429,-0.747095,-0.723292,-0.551633,0.586652,0.959735,-0.387194,-0.689045,-0.593017,-0.32819,-0.451593,0.861531,-0.495085,-0.0128106,-0.452342,0.28894,-0.106789,-0.621907,-0.364293,-0.0413016,0.571319,-0.623803,0.653532,-0.272152,0.439492,0.0267149,-0.733464,-0.418092,0.179655,-0.669842,-0.879158,-0.483255,0.116239,-0.418109,0.971884,-0.780136,0.930941,0.243597,0.378092,0.751652,0.0056854,0.540508,-0.432372,-0.595531,0.491043,-0.102463,0.540212,0.605474,-0.855495,0.0257497,-0.105964,-0.550674,0.14496,0.105156,0.824964,-0.664205,0.822952,0.852623,-0.787814,0.74321,0.677729,-0.993483,-0.520703,-0.444483,0.990586,-0.613738,-0.162576,-0.260498,0.475565,-0.526603,-0.539591,0.918577,0.298755,0.766014,-0.494976,-0.229735,0.335638,0.950897,0.182689,0.44486,-0.374983,0.460228,0.472012,0.55007,0.495131,-0.327692,0.381232,0.728397,0.82991,-0.149611,-0.845488,-0.746241,0.128387,-0.747508,-0.805891,-0.195773,-0.993279,-0.588985,0.845448,-0.238148,0.326022,0.495765,0.219073,-0.730313,0.824045,0.940934,0.678635,0.505295,-0.598933,-0.467562,0.86982,-0.888958,0.926958,0.653689,-0.322306,0.158598,0.946645,0.24354,0.0112688,0.581298,0.802878,-0.440361,-0.629104,0.824733,0.708924,-0.237781,0.609054,0.26262,0.734773,-0.652376,-0.0147837,-0.895732,0.612874,0.668744,-0.423091,-0.87434,0.219519,0.212369,0.40504,0.534734,0.938031,-0.594785,-0.0654889,-0.175422,0.499681,-0.817409,-0.146924,-0.391294,-0.732026,0.353163,0.0708648,-0.0999439,0.405059,0.34989,0.110283,-0.938675,-0.394209,0.853433,-0.987531,0.642327,-0.205931,0.65492,-0.99727,0.397384,-0.58337,-0.349493,0.634371,-0.666812,-0.38378,-0.191619,-0.697554,-0.58794,-0.269512,0.740866,0.623504,-0.42611,-0.353946,-0.375348,0.140167,-0.800407,0.834913,-0.445218,0.281015,-0.457156,0.357708,-0.774198,-0.883692,-0.2422,0.183594,0.86596,0.303918,0.429891,-0.674003,-0.389,-0.297155,0.801388,0.943073,-0.380321,0.765362,-0.713374,0.0435429,-0.524465,0.781627,0.931357,-0.547564,0.467429,0.759164,0.472228,0.681453,0.744205,0.641739,-0.716437,0.981238,-0.752834,-0.71034,0.133555,0.193192,0.968109,-0.603652,-0.476713,0.217569,0.356908,-0.967243,-0.854693,0.0188243,0.801186,-0.316057,0.785633,0.0386463,0.184046,-0.696592,0.0822568,0.0503618,0.101473,0.648175,-0.932796,0.819399,-0.504177,-0.427561,0.797696,-0.634742,-0.614224,0.0297877,0.679713,-0.955873,0.375607,0.329426,-0.290516,-0.833076,0.451035,0.675409,-0.988356,-0.59695,0.515786,0.712705,0.880917,-0.321941,0.593751,0.580149,0.839028,0.901921,-0.924559,0.113189,-0.794278,-0.668621,0.442955,-0.336936,-0.976382,0.763479,-0.609745,-0.11544,-0.434234,-0.948582,0.401601,0.986443,0.876015,0.699631,-0.183864,0.824085,-0.893196,0.563107,0.888303,0.526653,-0.983508,0.970751,0.818695,-0.0359001,-0.240107,0.204857,-0.21803
-0.00588,-0.428634,0.318379,0.83481,-0.500563,-0.9755,0.533128,-0.636352,0.685145,0.481591,-0.374975,-0.439689,-0.434126,-0.0509425,-0.776368,-0.342771,-0.874353,0.639531,-0.683242,-0.85121,0.390592,0.482432,0.970615,-0.675592,0.681798,0.919983,0.853279,-0.568788,-0.393517,0.466416,-0.129563,0.443786,-0.278406,-0.6669,-0.0562597,0.248944,-0.8657,0.854104,-0.69147,0.691372,-0.866693,0.725531,-0.274716,-0.485994,0.842536,0.251395,-0.894348,0.191302,-0.0890337,-0.922361,-0.451811,-0.314167,-0.664579,-0.408532,-0.886211,0.618702,0.36595,0.287852,0.458545,0.0629148,-0.0995579,-0.588412,-0.966949,0.444918,0.777678,-0.053398,0.691722,0.928334,0.27573,-0.504181,-0.218586,-0.906261,-0.955925,-0.253577,-0.0447425,0.857874,-0.733092,-0.417574,-0.200876,0.155351,0.431277,-0.418752,0.5711,0.518823,-0.727627,0.845959,0.868178,-0.939092,0.734378,-0.790419,-0.67477,0.906857,-0.757895,-0.998832,-0.582045,0.806848,0.832265,-0.532118,-0.654616,0.731908,-0.0737987,-0.433716,0.162353,0.158689,0.266204,0.440545,-0.601473,0.346731,0.816454,0.532441,-0.996299,0.639977,0.137911,-0.737721,0.256544,0.520391,-0.432326,0.76482,0.912422,-0.0154696,-0.257284,0.122306,0.582621,0.360776,-0.652349,0.975189,-0.0215264,0.0138207,0.0330991,-0.330909,-0.751564,-0.164954,-0.10384,-0.860982,-0.219715,-0.168826,0.844951,-0.76223,0.460065,-0.0385971,0.672673,-0.302622,-0.385512,-0.259417,-0.997992,-0.445364,0.75086,0.873535,0.525529,0.51978,-0.938725,-0.96823,0.711866,0.27415,-0.661974,-0.448914,-0.789937,-0.112768,0.212673,-0.450588,0.287542,0.735303,0.0915192,0.524275,0.722123,0.979115,-0.757041,0.179853,0.841424,0.712731,0.166735,0.396499,0.875103,-0.0434981,-0.771321,0.685317,0.332776,-0.869979,0.720475,0.978365,-0.712627,0.709638,-0.310652,-0.608009,0.522308,0.767899,0.0839898,-0.681029,0.375378,-0.0783548,0.945895,-0.233861,0.740598,-0.190587,-0.271874,-0.511027,-0.0236835,-0.339077,-0.192859,-0.234976,0.346531,-0.461766,0.936044,0.256693,0.289547,0.372139,-0.702949,-0.858268,-0.36687,-0.559734,0.143744,-0.866988,-0.429402,0.194571,-0.130158,-0.0177569,-0.161811,0.9533,-0.253792,0.634406,-0.572225,0.162844,0.636635,0.661708,0.70088,-0.636566,-0.298917,0.973949,0.639708,-0.639376,0.39071,-0.49972,-0.170907,0.576992,-0.29474,-0.766555,-0.370738,0.449703,0.654513,-0.274618,0.692713,0.473407,0.366944,-0.286151,-0.517154,-0.743265,-0.321292,-0.637349,-0.011333,-0.354829,-0.105298,-0.866593,0.856322,0.418515,-0.372272,-0.0624862,0.85986,-0.116849,-0.817335,0.913399,-0.908781,-0.173608,0.446025,-0.00190711,0.0437127,-0.700748,-0.316118,0.950112,-0.619791,0.664209,0.868836,-0.354658,0.789023,-0.312541,0.867206,0.659506,0.725459,-0.982418,0.186771,-0.720665,-0.126072,-0.369476,0.0840817,0.193904,-0.592128,0.420235,0.270956,-0.825841,-0.515205,0.0610303,-0.650312,-0.0425548,0.845768,-0.81514,-0.958512,0.20485,0.990205,0.631205,-0.350704,-0.699924,0.500577,-0.105811,0.797248,0.818616,-0.623808,-0.352741,0.295723,0.513542,0.846475,0.0501496,-0.735493,-0.552061,0.711228,-0.308049,0.0213144,0.140987,-0.236317,0.599658,0.776908,-0.252655,-0.226025,-0.0770729,-0.936784,-0.508176,-0.230588,-0.408214,-0.123079,0.108508,0.753287,-0.086087,-0.828002,-0.733226,-0.789003,-0.879202,-0.0892066,-0.152837,0.219247,-0.374572,-0.794314,0.63231,0.196113,-0.792638,-0.315683,-0.242779,-0.690765,-0.531832,-0.969538,-0.86169,0.509853,-0.0682801,-0.0432969,-0.435882,-0.902657,-0.172474,-0.418416,0.920564,0.122935,-0.939173,0.126797,0.827312,-0.613108,0.174527,0.198384,0.0641264,-0.292878,0.173859,-0.10771,-0.843186,-0.285704,0.432305,-0.455521,0.0270139,0.453851,-0.994262,-0.0653257,-0.088026,0.721954,0.612423,0.661756,-0.0209078,0.908111,0.355939,0.370661,0.19361,0.978957,0.295845,-0.107549,0.218186,0.453678,0.19834,0.986081,-0.994121,0.914463,0.421056,-0.650796,-0.278977,0.743589,-0.356372,0.86684,0.241444,-0.235381,0.0185631,-0.72788,0.140277,0.391525,0.0945343,0.0539994,0.30808,0.00901297,-0.991571,-0.956395,-0.233593,0.442998,0.747087,0.849719,-0.941309,0.955396,-0.0387077,-0.412522,-0.789814,0.976644,-0.150206,0.725963,0.949725,0.910703,0.912797,0.216739,-0.0484021,0.740828,0.347762,0.839181,-0.398773,-0.309765,-0.796433,-0.690573,-0.521813,-0.981339,-0.102782,0.842195,-0.0964171,-0.795247,0.137317,-0.191728,-0.340818,0.323743,-0.614304,0.405551,0.314563,-0.494695,-0.971588,0.681548,0.458061,-0.543307,0.94589,0.782972,0.870079,-0.171904,0.242729,-0.884092,0.290492,-0.975121,0.682109,-0.989175,0.661728,-0.409609,0.507547,0.654829,-0.906107,0.494926,-0.805183,-0.324566,0.456919,0.0592285,-0.0428827,0.146149,0.803531,0.834924,0.657236,-0.430927,0.941427,0.0411007,0.307809,-0.197182,0.981293,-0.632421,-0.0769662,0.0225424,-0.0555399,-0.67808,0.023833,0.878217,-0.157486,-0.947398,-0.0266461,-0.472002,-0.310237,0.721939,0.138201,0.903252,0.0261734,-0.101812,0.273542,-0.173634,-0.508342,-0.966031,0.510284,0.0770869,0.122477,-0.139272,0.641777,0.172448,-0.99675,-0.0119398,0.41364,0.860542,0.0136598,-0.135094,0.788674,0.834511,0.290092,-0.406874,-0.390586,-0.640091,-0.371498,-0.0540428,0.70867,-0.765858,0.534566,-0.544085,0.411958,-0.103555,0.421189,0.370313,0.331512,0.94809,0.993619,0.613621,0.245978,0.810575,-0.176053,-0.873765,0.173105,0.470824,0.5817,-0.408274,0.0523421,0.359802,-0.402699,-0.783672,-0.470914,-0.160387,0.836808,-0.502228,0.0632811,-0.711296,0.413074,0.0845469,0.23184,-0.525085,-0.429338,0.200057,0.52547,0.373413,0.200539,-0.566322,0.767735,-0.810204,0.92791,0.393256,0.4621,0.00179338,0.668936,-0.441117,0.116506,-0.347629,0.382812,-0.495181,-0.150859,0.704334,0.081648,0.789236,-0.715195,-0.318012,0.199437,0.701869,0.716499,-0.549745,0.114591,-0.298094,0.754719,0.82445,0.913429,0.415196,-0.885319,-0.204024,-0.136659,-0.294918,-0.719033,-0.402103,0.779781,-0.0176801,0.292102,-0.203008,0.487563,-0.244667,0.777038,0.975435,-0.62588,0.108054,0.386588,-0.816517,0.516543,0.885294,0.97108,-0.0101178,-0.687374,-0.158242,-0.946113,0.571761,0.867675,-0.298434,0.491922,-0.136832,-0.413039,-0.931255,0.28203,0.431203,-0.2759,0.772438,-0.632375,-0.221878,0.470648,-0.55144,0.7229,0.386381,0.468762,0.572598,0.375829,0.341455,-0.207875,0.92377,-0.0633917,-0.430852,0.793642,0.705945,-0.541795,-0.270591,0.39283,0.254541,0.21504,0.850683,-0.538578,0.895218,0.704847,0.86519,0.0148749,-0.559545,0.540701,-0.903691,0.405054,0.905353,-0.028217,0.539377,-0.136579,-0.499199,-0.994884,-0.682242,-0.235226,-0.84545,0.0403633,0.656483,0.31548,0.44892,0.165058,0.228173,-0.184506,0.491362,0.650113,-0.640712,0.495424,-0.361211,-0.786108,-0.0151114,-0.926444,0.174998,-0.604234,0.541041,0.323428,0.272519,0.976487,-0.00359045,-0.322643,-0.453558,0.125332,-0.857738,0.904334,-0.458407,-0.473132,0.682724,-0.930098,0.231531,-0.693931,-0.43391,0.316097,-0.129079,-0.537555,0.927118,-0.532094,-0.776761,0.900094,-0.0503799,-0.427599,-0.472728,-0.544072,0.0737182,0.27086,0.164485,-0.293394,0.257926,-0.0655416,-0.765114,-0.932905,-0.85653,0.377077,-0.96685,0.927056,0.303408,-0.529738,0.214384,-0.634094,0.621971,0.233987,-0.911392,0.46076,0.17235,-0.737784,0.81366,-0.838953,0.291609,-0.50136,-0.250915,0.659523,-0.33914,0.232162,-0.0327694,-0.628666,-0.48806,0.449556,-0.308294,-0.408341,0.430173,0.584658,0.0879824,0.844571,-0.812416,-0.438414,-0.533422,0.577807,0.380242,0.908404,0.711759,0.155491,-0.72172,-0.186174,-0.519105,-0.945717,-0.15064,0.668638,0.728133,-0.937087,-0.0546189,0.64175,0.245931,-0.525534,-0.831445,0.725086,-0.712555,0.319489,-0.70079,-0.438022,-0.865736,-0.220578,0.428201,0.791544
-0.70456,0.23331,-0.647502,-0.863067,0.407527,-0.169531,0.311842,0.69216,0.931476,-0.917643,-0.846741,-0.488016,-0.949174,-0.512285,0.189605,-0.725803,0.555523,0.427413,-0.158872,-0.394001,-0.979005,0.626741,0.826597,0.926417,-0.764975,-0.338382,-0.672218,0.751269,0.189849,0.866866,0.750119,0.410631,0.395978,-0.462039,0.761564,-0.758735,-0.675902,-0.913989,-0.274445,-0.796528,-0.357755,0.229223,-0.680732,0.201453,-0.192766,-0.0557694,-0.612249,-0.217337,0.451483,-0.474723,-0.190427,-0.904599,0.244305,0.982395,0.878245,0.694011,0.11852,0.0119544,0.953361,0.0847099,-0.793319,0.117015,-0.916591,0.301259,0.854532,-0.439714,-0.1875,-0.427689,-0.0206471,-0.0707828,-0.335184,0.186308,0.523064,-0.300441,0.510429,0.963509,0.758416,-0.744114,0.469427,0.619076,0.894239,0.886542,-0.142865,-0.524838,-0.632842,-0.126871,-0.0592692,0.834734,-0.840025,0.739267,0.252574,0.71196,0.698727,0.434563,0.909211,0.0896933,0.142047,0.329611,-0.209743,0.347824,0.5117,-0.173005,0.650071,-0.529204,0.524538,0.464117,0.321992,-0.995189,-0.709599,0.522058,0.599364,-0.440056,-0.672322,0.594448,0.212401,0.240057,-0.612799,-0.986224,0.641272,0.500692,-0.962638,-0.577872,-0.115555,0.454754,-0.375334,0.170328,0.436516,0.591456,0.156631,0.746879,0.0713204,-0.774132,0.0296323,-0.839302,-0.803331,0.0612327,0.0610707,-0.803892,-0.31894,-0.183477,0.60045,-0.716343,-0.793189,0.723396,0.656058,-0.563643,0.0153721,0.710584,0.201015,0.907762,0.154286,0.101033,0.562661,-0.26237,-0.351016,0.635127,0.834463,0.106113,0.886235,0.143683,0.797885,-0.353849,0.324496,-0.256986,-0.189516,0.42221,0.0125689,0.480128,-0.869899,-0.943209,0.133908,0.930557,0.306096,-0.91737,0.508709,0.108251,-0.875082,-0.338979,-0.884911,-0.101139,0.645616,0.715609,0.971721,0.639512,-0.799293,-0.447883,-0.180133,0.325378,0.538164,0.333744,0.120429,-0.927124,-0.563213,0.219333,-0.060667,0.114178,-0.550341,0.310071,-0.846381,-0.813762,-0.89841,-0.148423,-0.0247287,0.104998,0.527597,0.45624,-0.231386,-0.304941,-0.238919,0.528539,0.69648,0.803718,0.236707,-0.574413,0.409041,0.861799,-0.816878,-0.327527,0.852879,0.0859944,-0.198714,0.117395,0.790195,0.344534,-0.765436,-0.495396,0.976708,-0.243941,0.609708,-0.524059,0.502142,-0.638952,-0.280355,-0.518432,0.597607,0.837386,0.39184,0.997432,0.438082,-0.054644,0.951375,0.276909,0.6977,0.593965,0.336309,-0.673561,-0.29999,-0.820583,0.493088,0.731112,0.101618,-0.521369,0.923561,-0.970996,-0.374515,0.544552,0.761927,0.295832,0.738396,0.558421,-0.243344,-0.30222,-0.591113,0.550439,0.710408,-0.836929,-0.114575,0.180262,0.439703,-0.129014,-0.909755,0.601535,-0.198864,0.97787,-0.347496,-0.721353,-0.668492,-0.365123,-0.4276,0.430917,0.995713,-0.287265,0.254963,-0.64635,0.598122,0.0411876,0.696938,-0.821696,-0.728627,0.161518,0.804161,0.958127,-0.991573,-0.861542,0.751453,-0.575674,-0.243725,0.585368,-0.673106,-0.871271,-0.344574,-0.0502325,-0.66078,0.947492,0.146534,-0.402964,0.408725,0.365336,0.569986,-0.913386,0.692865,-0.951509,0.535057,0.758572,0.893408,-0.0114893,-0.333132,0.926264,0.363288,0.803335,0.23884,0.787894,-0.888099,-0.019179,0.651343,0.133892,0.654162,0.707113,-0.501941,-0.132101,-0.854904,0.84177,-0.51823,0.0742971,-0.0233424,-0.945616,-0.0605268,0.0392488,0.900929,-0.945206,-0.734864,-0.824508,-0.641439,-0.503273,0.00978301,0.382075,-0.34425,-0.373598,0.0577225,0.710268,-0.340099,0.977684,-0.820513,0.970017,0.720897,0.269743,0.313084,0.132575,0.881215,-0.110562,0.861422,0.931839,-0.842042,-0.544687,0.709529,-0.0732652,-0.70177,0.58636,-0.540752,-0.221113,-0.918033,-0.708195,-0.511313,-0.342086,0.612638,-0.0452721,0.34905,0.470851,0.48415,-0.623289,0.920469,-0.818816,0.475515,-0.442845,0.227868,-0.177624,0.4573,-0.879057,0.437062,-0.650683,-0.740728,-0.662266,-0.419581,0.649253,-0.166341,0.480127,0.171226,0.895027,-0.332386,0.679851,-0.766284,-0.629197,0.430672,-0.484638,-0.142731,-0.303769,0.508371,-0.151882,-0.767348,0.145712,-0.888565,0.366646,0.826446,-0.407221,0.0425227,0.286262,-0.546124,-0.224737,-0.882442,0.537497,-0.686759,0.629701,-0.92261,-0.411606,0.123096,0.070602,0.143142,0.220849,0.96068,-0.98393,-0.540401,0.168983,-0.448809,-0.200329,0.701186,-0.698389,-0.634224,-0.116671,-0.142154,-0.533117,0.492512,-0.925718,0.297825,-0.537746,-0.147329,-0.627403,-0.313388,-0.40602,-0.4707,-0.910662,-0.437837,-0.835131,-0.697122,-0.701092,0.886155,-0.177006,0.309391,-0.418653,0.1882,0.210715,-0.0251075,0.247038,-0.111372,-0.113886,0.736065,0.524519,0.130091,-0.662411,0.497003,-0.267001,0.752249,0.315508,0.317087,-0.546286,-0.468183,0.763551,0.669433,0.587359,-0.240076,0.744923,-0.0832893,-0.729492,-0.343733,-0.975311,0.807946,-0.558773,0.697758,0.658861,0.988611,0.267469,0.557176,0.162669,0.348355,-0.233612,-0.513954,-0.304865,0.516352,-0.562276,0.118069,-0.673631,0.796948,0.533451,0.541013,0.54878,0.916106,0.257559,-0.548312,-0.488163,0.273223,-0.345864,-0.26188,0.715828,0.862629,-0.918496,-0.631637,-0.932123,-0.472241,-0.732775,-0.38925,0.877311,0.158492,-0.34572,-0.26114,0.684383,0.666114,-0.816895,0.667896,-0.435239,0.439208,0.764594,-0.968578,-0.203888,0.740711,-0.731387,-0.561985,-0.845562,-0.689182,0.409274,0.798765,0.915778,-0.167834,0.607323,0.959628,0.180757,-0.277916,-0.769619,-0.966719,0.0142363,-0.226631,-0.0197059,-0.125518,-0.812977,-0.0113657,-0.935048,0.130749,0.675842,-0.383818,-0.269232,0.902662,-0.330034,0.936384,0.454733,0.833318,-0.581567,0.290476,-0.420607,-0.875312,0.108025,0.506373,0.634851,-0.812737,-0.187485,0.908014,0.976863,0.986159,-0.324085,0.804544,-0.944984,-0.831362,0.129393,0.946364,0.541263,-0.289162,-0.443195,-0.0939486,0.372366,0.840102,-0.185561,0.671577,-0.424834,-0.29578,0.701363,0.927613,-0.860183,0.470385,0.483873,0.815994,-0.666176,0.278446,-0.617363,0.329843,0.456797,-0.639318,0.354822,-0.410359,-0.00951289,-0.616148,-0.712331,0.529146,-0.215267,-0.264715,0.298803,0.238645,0.862509,0.0733272,-0.682886,0.818573,0.16293,-0.626578,0.548043,0.0146344,-0.57236,-0.657422,-0.0301686,-0.254684,0.414827,0.915689,-0.808731,0.796114,0.384379,-0.0616394,-0.325822,-0.854436,-0.831444,0.465529,-0.862152,-0.619539,-0.0280579,-0.697731,-0.0783808,-0.936268,-0.509238,0.0331685,-0.716817,0.814906,0.646147,0.235175,-0.119899,0.745358,0.200069,0.156774,-0.0826127,0.399493,0.614334,-0.31317,0.344937,0.00266672,0.425465,-0.752364,0.15066,-0.341905,0.693076,0.640028,0.907402,-0.500652,0.703906,-0.52546,-0.378872,0.274739,0.982223,-0.420541,0.957414,-0.0994853,-0.982115,0.91568,0.697757,0.729967,0.509415,-0.773326,-0.955834,-0.639529,0.457714,0.287328,-0.432326,0.358809,0.232174,-0.689322,-0.244481,-0.514811,-0.607597,-0.356604,0.044039,-0.38949,-0.586844,-0.467615,0.0842059,-0.665823,-0.778626,0.85586,0.32803,-0.814853,0.848482,0.437155,0.0363588,0.243807,-0.466159,-0.483549,-0.824527,-0.636403,-0.936688,-0.486481,-0.920686,-0.0594416,0.293897,-0.872274,-0.52969,0.229053,-0.661921,0.631494,0.424527,-0.0696481,-0.389243,0.00663136,0.593674,0.274115,-0.256283,-0.672157,0.102687,0.640249,0.239765,-0.525154,0.930863,0.86902,0.974346,-0.597576,0.750043,-0.944225,0.199818,-0.746078,-0.0404294,-0.684568,-0.586329,-0.0770859,0.805907,-0.220121,0.983099,0.0659871,0.0773005,-0.0290005,-0.308222,0.710001,-0.273436,-0.945834,0.593188,0.358527,0.146201,0.982788,-0.366148,-0.271098,0.0950884,0.116496,0.828623,-0.41761,0.440769,-0.620555,0.688466,0.211442,-0.187966,-0.832258,-0.401746,0.912466,-0.324697,-0.0388822,0.97764,0.417451,-0.304474,-0.409747,-0.972022,-0.200799,0.981508,-0.472106,-0.926275,-0.778093,0.561742
0.390307,-0.429169,-0.249982,-0.239389,-0.98847,0.0392849,-0.0558137,0.988675,0.953405,-0.914059,-0.134924,0.520733,-0.0258383,-0.0929498,0.157497,-0.00406647,0.489861,-0.45218,-0.50465,0.147525,0.927756,-0.00410634,0.626751,0.888579,-0.259958,0.524927,-0.212113,0.497696,-0.101673,-0.766147,-0.158267,-0.100755,-0.983951,-0.636192,0.304462,0.48189,-0.72822,-0.110083,-0.551625,0.282002,0.98809,-0.616263,-0.831217,0.468328,0.992737,0.0166591,-0.393425,0.124463,-0.434046,0.459729,0.247565,-0.223156,0.408221,0.811761,-0.474494,0.821213,-0.805575,-0.872878,-0.206882,-0.991949,0.632743,-0.985932,-0.250397,0.987395,-0.117935,-0.969261,0.000191092,0.0284998,0.753901,0.155456,0.424142,0.215261,0.274983,-0.422964,-0.694597,-0.148916,-0.52358,-0.448919,-0.178502,0.9483,-0.292629,0.202404,-0.364371,-0.91511,0.726446,0.942775,-0.214023,0.30122,0.128573,0.798106,-0.708107,0.312923,0.382282,0.490729,-0.685113,0.329649,-0.676364,-0.28709,-0.84843,0.863413,-0.176648,0.460433,0.833855,-0.130532,-0.519141,0.0141728,-0.277514,0.48945,-0.591371,0.890999,-0.390389,-0.521877,0.021317,-0.515913,-0.869012,0.406883,-0.144576,0.941831,0.816623,0.980519,-0.324805,-0.651828,0.572164,-0.862206,-0.708822,0.561171,0.625642,0.0103357,0.392013,-0.797728,0.501709,-0.645438,0.193964,0.983863,-0.510087,-0.719949,0.264764,-0.0888208,-0.159123,-0.536038,0.524938,-0.597248,0.10268,-0.210846,0.191234,-0.622701,0.625571,-0.792185,0.928784,-0.697278,-0.789443,-0.71748,-0.403469,-0.435499,0.581587,0.838473,0.116301,0.452759,-0.269529,-0.989551,-0.792986,-0.428983,0.229065,-0.76484,-0.989598,-0.190582,-0.986431,0.704099,0.341389,-0.690323,-0.652253,-0.138191,0.857308,-0.51511,-0.16769,0.475139,0.300926,0.750309,-0.389029,0.639154,0.711787,0.790054,0.66754,-0.00834457,-0.0827903,-0.237123,0.503613,0.875606,0.997331,-0.237122,0.685663,0.818366,0.221274,0.7964,-0.331277,-0.156123,0.280612,-0.831533,0.146845,0.344791,-0.840854,-0.896941,0.202803,-0.0556968,0.992967,-0.521536,0.751123,0.515421,0.424006,-0.685113,0.265643,0.320709,-0.0737576,0.954369,0.213116,0.557555,0.610967,-0.149227,0.990668,0.0598199,0.446305,-0.14579,0.305203,0.597747,0.193658,-0.885893,0.682817,0.653571,0.268151,0.916527,0.562427,-0.041421,-0.860892,-0.131464,0.325496,-0.937366,-0.875811,0.0872513,-0.683968,-0.0877102,0.153224,0.146173,-0.0795556,0.698243,0.295603,-0.0483301,-0.773962,-0.482461,-0.223147,-0.166911,0.37733,0.568088,-0.412604,-0.45261,0.667593,0.196435,0.57942,0.812475,0.138832,-0.80371,0.399946,0.321611,-0.63573,-0.53691,0.631057,0.0467733,-0.0183826,-0.390697,-0.0586096,-0.668702,0.580213,0.631235,0.468669,-0.875637,-0.146719,-0.780636,-0.637267,0.573285,-0.217268,-0.0723435,0.333908,-0.177347,0.238466,0.21424,-0.369979,0.282484,0.350575,-0.987892,0.187034,0.960152,-0.499299,0.0643585,0.735767,0.0465692,0.892487,0.94315,-0.288821,-0.0155167,-0.101683,0.0344141,0.890019,0.937432,-0.415234,-0.593584,0.0513909,0.727849,0.869733,0.501518,0.656852,-0.701935,-0.385619,-0.066328,-0.155655,0.480539,-0.804437,0.560759,0.520565,0.578397,-0.820264,-0.057102,0.315253,-0.43677,-0.90694,-0.775041,0.602836,0.0564487,0.879163,-0.417532,-0.242395,0.355122,-0.143115,0.909544,-0.580768,0.146958,-0.378699,-0.0456724,0.92256,0.0592811,0.905036,-0.956489,-0.21464,0.0150443,-0.496743,0.806249,-0.688087,-0.201887,-0.60833,0.218401,-0.447003,0.383369,0.605829,-0.800396,0.83424,0.862955,0.477977,-0.99561,0.367114,0.639585,0.0791907,0.710096,0.445281,-0.250194,0.396926,-0.398006,0.178266,-0.318241,0.156109,0.605925,0.501446,-0.54979,0.243185,-0.0662566,-0.644188,0.264441,-0.748936,0.0864451,-0.453794,0.600957,-0.941171,0.148398,0.196744,0.896663,-0.837337,0.82303,-0.414983,0.555795,-0.122102,0.309755,0.658908,0.884274,-0.841106,-0.101527,-0.453588,0.408318,0.0458019,-0.627024,0.623741,-0.612313,-0.0510849,0.0899531,-0.21602,-0.826989,0.821333,-0.301194,0.576853,-0.739956,-0.717836,0.892125,-0.922935,-0.142661,-0.860406,-0.760675,-0.377835,-0.173055,-0.635045,-0.25628,-0.69003,-0.892619,-0.601007,-0.122122,0.73134,0.232773,-0.370783,-0.428936,-0.829641,-0.237831,-0.784293,0.0998115,0.57888,0.540528,-0.963509,-0.166926,-0.404917,-0.121516,0.319258,-0.310752,-0.229032,0.490502,-0.815799,-0.700076,0.121216,0.443671,0.406801,-0.567605,-0.431767,-0.503858,-0.788795,0.743222,0.983626,0.735607,-0.695767,0.942235,0.0161822,0.449843,0.171956,0.665401,-0.227206,0.505598,-0.400154,-0.528121,-0.0817887,-0.0464202,0.586999,0.432428,-0.0705775,0.794505,-0.59644,0.036373,-0.388081,0.00106674,-0.524058,-0.114143,-0.527812,-0.735659,0.0777405,-0.93085,0.183301,0.393068,0.990345,0.601239,-0.69706,0.612153,0.883963,0.544026,-0.572636,0.303858,-0.442815,0.923899,0.334247,-0.368826,0.810356,-0.87563,-0.95862,-0.802399,0.793113,-0.242684,0.168083,-0.916925,0.977636,-0.273829,0.415687,-0.517331,-0.108402,-0.79028,-0.868537,0.798378,0.326487,0.192916,-0.105778,-0.317521,0.788906,-0.192478,-0.393327,0.259381,0.184703,-0.69045,-0.02277,-0.49801,0.080181,-0.878061,-0.925825,-0.0394604,-0.247625,0.607804,0.948466,-0.290795,-0.893085,0.479448,0.816007,0.205366,0.473234,0.846591,0.295348,-0.19095,-0.738366,-0.390381,-0.945897,-0.971178,-0.150209,-0.9632,0.449391,-0.591111,0.282397,0.71006,-0.326526,-0.919383,-0.502396,-0.384683,-0.791547,-0.361299,0.329349,-0.376596,-0.925303,-0.680117,-0.19349,-0.417308,0.697765,0.192778,0.690225,-0.28129,-0.914714,0.629002,-0.202629,-0.392637,-0.238977,-0.503843,-0.167805,-0.43352,-0.681225,-0.702239,0.970485,0.0815382,-0.748026,0.210785,0.28388,0.208039,0.586987,0.90399,0.0307011,0.621156,0.569758,-0.894411,0.904702,-0.00116524,-0.829286,0.371564,0.10683,0.810829,0.558937,-0.873408,-0.509232,0.2234,0.510554,-0.881484,-0.105217,-0.770219,-0.209987,-0.0220579,-0.383969,-0.392027,-0.636583,0.572615,0.69689,-0.662181,0.755057,0.349201,0.599649,0.912419,-0.0862545,-0.96354,0.781297,-0.308844,-0.73564,-0.0118919,-0.289609,-0.507134,0.156653,0.729766,0.530434,0.232662,-0.667134,-0.34744,0.550763,-0.180012,-0.320182,0.846769,0.20355,-0.496069,0.692633,-0.0994708,0.801459,-0.0877274,0.604222,-0.981428,0.0446308,-0.54208,-0.39457,0.700159,-0.220642,0.814398,0.216198,-0.0855168,-0.237053,0.102526,0.766603,0.245685,0.780483,-0.490367,-0.828554,0.428273,0.319162,-0.40208,-0.734123,-0.554776,0.258447,-0.35969,-0.946802,-0.974176,0.293382,-0.437854,0.877601,-0.539304,0.337866,-0.118811,-0.0121233,0.0624806,-0.301607,0.39945,-0.809224,0.514801,0.963695,0.502118,-0.498005,-0.150071,-0.135207,0.167044,-0.885541,-0.931824,-0.496424,0.356503,-0.73007,0.523262,0.376669,-0.137516,0.18128,0.981588,0.233652,0.65379,-0.23888,-0.757749,-0.367834,-0.392673,-0.066433,-0.103444,-0.971108,-0.173975,0.536094,0.294706,0.32871,-0.112638,0.0570087,-0.851191,0.696009,0.341874,-0.757615,-0.635701,0.160477,-0.54097,-0.892162,-0.921526,-0.832659,0.393614,0.247096,0.697236,-0.180394,-0.091276,-0.403155,0.971358,0.483021,0.194859,-0.676823,-0.572694,0.521477,-0.168476,-0.112861,-0.652673,-0.519983,-0.880537,0.660414,0.0503088,0.787403,0.226444,-0.553314,-0.74092,-0.274988,0.33717,-0.464325,-0.0695901,-0.220707,0.81755,0.266484,-0.606492,-0.879345,-0.65105,0.99234,-0.516217,-0.782211,0.346321,0.679756,-0.0327598,0.134579,-0.00296861,-0.741186,-0.454962,-0.030469,0.373309,0.460067,-0.819283,-0.46523,0.30366,-0.737541,-0.266428,-0.624141,0.813388,0.0774375,-0.749203,0.704137,-0.367868,-0.489577,0.715402,-0.54452,0.392087,0.632158,-0.680774,-0.125029,-0.913153,-0.457638,0.599118,0.611425,-0.387485,0.615328,0.888378,-0.219681,0.995495
